114 100
not 0.0035634083 -0.0029959027 0.003220404 -0.0015099826 -0.0032588537 0.004845794 -0.00616219 -0.005242358 -0.0072693387 -0.004969748 -0.0059897983 0.004264546 3.8708484e-05 -0.0036382282 -0.0023229693 -0.0057307985 -0.0006050389 0.0062771807 0.004367763 -0.003907928 0.0043381294 0.003170462 -0.002215005 0.0005609471 0.0035435185 -0.007915521 -0.0014551869 0.0016905046 -0.0040300493 -0.005934162 0.0035858324 -0.003960648 0.0039110794 0.0032540672 0.0019960117 -0.008976591 0.0003768292 0.00840087 -0.003254248 0.0042583337 0.0010340887 -0.0048111496 -0.0018592672 -0.0050716256 -0.0005815825 -0.0030463096 -0.0030749347 -0.0015014628 -0.00024251286 -0.0006847068 0.0029553964 -0.00631225 0.000653028 -0.0030413042 0.0024760612 -0.0005254405 -0.0018714945 -0.0005374665 -0.0038212372 -0.0029537464 -0.006627305 0.003494749 0.0012671992 0.0026075465 0.0037860149 0.0033169473 -0.00077859714 0.008720874 0.005198216 0.00527338 0.0029147333 -0.0003306888 -0.00444213 0.0015133284 0.0014481933 -0.0015040587 -0.009323203 -0.006521739 0.005733229 -0.005785291 0.002145057 -0.004965548 -0.002886449 0.008193204 0.007694909 0.0041193855 0.005981376 0.0023191168 -0.0011004466 -0.002106186 -0.008609961 0.0046140673 0.005753633 0.00018225136 0.0019345655 -0.007817491 -0.005418005 -0.00020341306 0.0048229806 0.004930364
fire -0.0020947168 0.0035166638 -0.002145219 -0.0011340019 -0.0010832272 0.006482024 0.0018705039 -0.0032579405 -0.0004742261 0.0022122534 -0.002808795 0.0015271911 0.0044472287 0.0012314194 -0.0025002155 -0.0038853462 0.0031514547 0.0051255156 0.0006690011 -0.0061585605 -0.004906841 -0.0005881146 -8.472116e-05 -0.0018172695 0.0030671875 -0.0033865436 -0.0022178139 0.004424032 -0.00026991288 0.0024694211 0.005395448 0.00048414074 0.0075316285 -0.002451157 0.0005826562 -0.009054985 0.0011709447 0.0023594897 0.00089259155 0.00020280734 0.0057858205 -0.00081702793 0.001078513 -0.00704007 0.0036713972 -0.0005996712 -0.005050591 0.0020477585 -0.00042273733 0.0026265332 0.0049170055 -7.574895e-05 0.00528767 0.0016708914 -0.0014889572 0.002249819 -0.007055854 -0.00032166604 0.0017649403 0.0058908626 0.0010425515 0.0034198798 -0.0017897545 0.0056053973 -0.00054735 0.005833882 -0.0016500228 0.007145325 0.000841461 0.006140778 -0.003241747 0.00050840597 -0.005555839 -0.0051902747 -0.0021220082 8.2312836e-05 -0.0035023403 -0.007241888 -0.0037710583 6.702592e-05 -0.0049771406 -0.0038824661 -0.0009175239 0.0015603896 0.0022699537 0.0006037528 9.8312616e-05 0.0036642363 0.004134908 -0.0016591777 0.0003858578 0.00030671727 -0.0025189342 0.0025429036 -0.0024357666 -0.0074161603 -2.9600506e-06 0.0023122642 -1.6882472e-05 0.0027916608
new -0.0016207574 -0.0036952037 0.003929814 0.0032464531 0.0015173994 0.0014267927 -0.0016493588 0.0031816245 0.00038525206 0.0017602905 0.0035745844 -0.0031263987 0.0046475637 -0.001509058 0.0011672208 -0.0042778826 -0.00025543733 0.0024703168 0.00131806 -0.0003637792 0.002885685 0.005554717 -0.0015440823 -0.0031455203 0.002695832 -0.0016445229 -0.0032995516 -0.0015767455 0.0031751725 0.0018731746 -0.0006273964 0.0049537593 0.0012553999 0.00032540192 -0.0028852262 0.00059736625 -0.0024719653 0.004469899 0.0031336783 3.978494e-06 0.00021094953 0.0032530401 -0.0047935075 0.002087086 -0.0036640372 0.00020045074 -0.0068218783 0.0045849197 0.0008648066 0.0011442077 -0.0017566114 -0.0004442191 0.0043080724 -0.0003388034 -0.0013230556 0.0031519819 0.0006906173 -0.002466111 -0.0040357495 -0.0036862486 0.0037482998 0.0002054623 -0.00045908632 0.001994489 -0.0003347167 0.0033552207 -0.0064458703 -0.0009771285 -1.0392515e-06 0.0067069987 -0.003976895 -0.0028023878 0.0040815244 -0.0005663779 -0.00026168773 -0.003730028 -0.0035201563 -0.0063693374 0.0015237563 0.0005750691 -0.00498352 -0.0018493666 -0.0041785496 0.0078876335 0.003934301 -0.0034100895 0.0025716557 0.002277428 -0.0050255214 -0.0031276024 -0.000118529955 0.0046158093 0.00056231953 0.0017135199 -0.0009688549 -0.0052289856 -0.0066951304 0.0011772824 0.0046451287 0.005889896
get 0.0024096435 0.00049769337 -0.0026626843 0.0022200637 0.00029571375 0.004286889 0.0031344085 -0.0073530045 0.0024166848 -0.004915204 0.0004389837 0.0044441614 0.005254024 0.0009878657 -0.006602958 -0.005724336 -0.0011634454 0.0062358365 0.006323055 -0.0014670832 -0.0026559185 -0.0030634988 -0.0014820676 -0.0013873454 0.0007387825 0.0012967663 0.001718914 -0.003918876 0.0029472522 -0.002914156 0.0029176574 -0.004009834 0.0011929229 0.0011731711 0.0005853582 -0.007779957 0.004666696 0.008370081 0.0048053386 0.004470471 0.00041353746 0.0015647915 -0.0010429329 -0.0048952503 0.00334095 -0.0013197104 0.0015207864 5.2492836e-05 -0.0034474607 -0.0047518155 0.00027936223 -0.00057538954 0.004084807 -0.00033539647 -0.0026969595 -4.6403104e-05 -0.0023028932 -0.0031574573 -0.005553545 -0.0022071132 -0.003808135 -0.003760293 -0.0020433287 -0.0021152727 0.0029024123 0.0006095338 -0.0037684373 -0.0018203952 0.0026495436 0.008944092 0.0024841598 -0.001017962 -0.0012255056 -0.004027768 -0.004534583 0.0047611874 -0.00916956 -0.0066553894 -0.0011327444 0.00071122375 0.0019112269 -0.0014380418 -0.006690253 0.0039879256 0.000232336 -0.003588805 0.0035520415 -0.0013993913 0.0022478465 0.003379739 -0.0016408553 0.0016454665 0.0015563566 0.0048834947 -0.0011365233 -0.004990603 -0.0055672848 0.006114076 -0.0010508384 -0.00014774801
people 0.0036241198 0.000912503 0.006597776 0.0005313872 -0.0024506147 0.00450612 -0.004036687 -0.0023952983 -0.0041945744 -0.004030601 0.0036061655 -0.0014439373 -0.0010878777 -0.0021398163 -0.0058057182 -0.0056610405 0.0032309946 0.008805311 0.0055358387 -0.002387206 -0.0034388534 0.005204498 0.00090488733 -0.005387628 -0.0004571403 0.00049490115 0.001000664 0.002442271 0.0030297984 0.0030744427 0.000747951 -0.0035388803 0.0037610284 0.0014418311 0.000917558 -0.009800213 -0.00072652224 0.005511651 0.0034947766 0.006627317 0.0069664004 0.00019746531 0.000984905 -0.008218047 -0.0019678927 -0.0015632688 -0.0039043257 0.004749237 0.0039574066 -0.002317485 0.001287477 -0.0047153216 0.0053176526 -0.0037916743 -0.0061359857 0.0027302534 -0.0005547559 0.0032680805 -0.0004664232 0.0032839582 -0.00021801595 -0.0032518741 8.9505855e-05 0.00070956437 -0.0033162136 0.0015133438 -0.0035284157 -0.0010954766 0.0034613495 0.003148576 -0.00033268737 -0.0028294956 0.0016569088 0.002717742 -0.003417461 -0.0026826903 -0.008633112 -0.006783484 -0.002932204 -0.005156262 0.001962058 -0.0015344018 -0.0022692336 0.010134604 0.0049880487 0.0011243819 0.0026057477 0.00085574546 0.0026690247 0.00033064996 -0.007310739 0.0066850185 -0.0030735559 -0.00034584472 -0.0008257441 0.0014661651 -0.002732315 0.0019818272 -0.0002644845 0.0060319235
news -0.00021029632 0.0040266686 -0.0020027868 0.0008137083 -0.0018050743 4.769112e-06 -0.0009460827 -0.0021202925 0.0014214686 -0.0049741464 -0.0050241146 -0.004193837 0.002102616 -0.0074967234 0.0014333958 -0.006399815 0.00083113374 0.006462167 -0.001631015 -0.0025415465 -0.004688298 0.00079144357 -0.0020042588 -0.005630321 0.005528976 -0.0029933762 -0.00019381642 0.0005314568 -0.0049949656 -0.005178808 0.0035691564 -0.0026929786 0.004277536 -0.0013964032 -0.0012512476 -0.002429897 0.0027788011 0.004467328 0.0008467927 0.0026000391 0.00095078425 -0.0013687453 0.00020331045 0.0004466912 0.0035338025 0.0032002127 -0.0034286485 -0.0013585209 -0.0031565821 0.0042916983 0.00700429 -0.0023214086 0.0031888904 -0.0033532493 -0.0024253342 0.0016078248 -0.0021635073 -0.0039750007 0.00034810003 -0.0039655548 -0.0051039155 0.0010484395 0.0023283253 0.0027026795 0.002756748 0.0006163579 -0.00763652 0.006040715 -0.00033025705 0.0093124965 0.004924943 -0.0035305407 -0.0010055709 0.0020505365 -0.0036455158 -0.0029819256 -0.0038425645 -0.00052797043 -0.0041850773 0.000852681 -0.0055940165 -0.0029853755 -0.00018387297 -0.00041330192 0.0040585897 0.004164554 0.002996313 -0.00083484926 0.0003049239 -0.0011749539 -0.0035265754 0.0045749266 -0.0034103116 -0.0037759056 -0.0047450177 -0.0033177019 -0.0048097693 0.0027903884 0.0047978796 0.0025524688
video 0.000685392 0.0040196767 -0.0023777361 0.0005908478 -0.0055905525 -0.00021195169 0.0011931779 -0.0065163374 -0.00035368517 0.0031526561 -0.003546064 0.0011748642 0.00046232398 -0.0045160605 0.0005207953 -0.005187205 0.004540751 0.008543764 0.0051400806 -0.0046346127 0.0016016788 0.0009017036 -0.0062359646 -0.0012739871 0.007127037 -0.007475718 -0.00024542995 0.0035462417 0.0008997555 -0.00070162694 0.005366659 0.0005517746 -0.00069856393 0.00047491153 -0.004161178 -0.003078674 -0.0042796745 -0.00040339745 -0.0033227787 0.0012821953 0.0059361695 -0.0015331785 0.003307427 -0.005437642 -0.0004417384 -0.003235243 0.0017691366 -0.0011970495 0.0026212868 0.004303259 0.0021838867 0.00033629072 0.004636327 -0.0032609487 -0.0064007165 -0.0013930348 -0.007174454 -0.0028617387 0.0035180533 -0.002790547 0.00101238 -0.0042246566 0.0018257535 0.0016114209 -0.00044327616 0.0029011194 -9.939728e-05 0.0050971583 -0.0020260627 0.002949907 -0.0032311487 0.0025441372 -0.0018001389 0.00012528904 0.0025983697 -0.0028535028 0.001504324 -0.006415945 0.00095705764 -0.0005053983 -0.0023378246 -0.0034282466 -0.004850392 0.0055014137 -0.0035308837 0.00036610395 0.0035702947 0.003935567 0.004987362 0.0049456735 -0.0046159187 0.0061112028 0.0028728223 -0.0014361183 -0.0011187947 -0.0025574744 -0.0050695078 0.0054395385 0.00021832337 -0.0006938916
disaster 0.0037234388 0.004910222 0.0026383807 -0.002663918 -0.005145884 -0.0023788072 -0.0047228467 0.0015844374 -0.0068148207 0.0029219552 -0.0019132703 0.0051449435 -0.001943658 -0.0035517958 -0.00544917 -0.0047349557 0.002359167 0.004358213 0.005814195 -0.0040552206 0.0033248556 0.004757647 -0.0066347327 -0.00013641533 0.0012791207 0.001365063 -0.004546567 -0.004517939 0.0040609143 0.0017453387 0.0020303873 -0.0019620492 0.0072760126 -0.002564256 5.382909e-06 -0.0066379234 -0.002222473 0.0050115804 -0.0041740364 0.0081424555 0.0016369884 0.002164194 -0.00061647675 0.0012345626 0.0031007165 0.0013710214 -0.006131157 -0.0032207286 0.0032251654 0.001853006 5.411739e-05 0.003046252 -0.0025809146 -0.0039702067 -0.00084684946 0.0057689203 -0.006442991 0.0031989394 0.001696782 0.0031251912 -0.0022145705 0.000710187 0.002338026 -0.0031466114 0.00228137 0.0031268974 0.00068799744 0.0033425204 -0.0006203416 0.009231463 0.0055950712 0.0056006038 -0.0032237128 -0.003194915 -0.0006871387 0.002163766 -0.0010058085 -0.0010722872 -0.0028376027 0.0025566278 0.0030360576 -0.0017978636 -0.0013555666 -7.794484e-06 0.005012959 0.0035950681 0.000729996 0.0017059573 -0.0025198667 0.0030126157 -0.0072743497 0.0042145182 -0.00085716957 0.0021893892 -0.000345755 -0.0012374243 -0.0059122313 0.0017705437 0.0025168322 4.1209194e-05
emergency 0.004525787 0.0006656513 -0.0031557444 0.0012122106 0.00046630288 0.0038086807 -0.003230533 0.00029154913 0.0030616177 -0.0011165168 0.0027937104 0.0029277354 -0.002093917 -0.0054918136 0.0026615364 -0.0016978726 0.0024183958 0.0067996904 0.004207047 0.0038034979 0.00041780932 -0.0031263141 -0.0055388897 0.0024618509 0.0057169627 -0.00090695155 -0.005902545 -0.0046779313 -0.0050733434 0.0046513346 -0.00093316654 -0.0018512394 0.0057282066 0.003409654 0.004429009 0.0023305716 -0.002989913 0.00085371494 0.0023020168 -0.00040449837 0.00070626754 0.0012887854 -0.0048684278 0.00085138675 -0.004166414 -0.002908084 -0.0065050265 0.004352792 0.0028657299 0.004843346 -0.0028237493 -0.004323248 0.00593236 -0.004866743 -0.003764854 -0.00300093 0.0015322028 0.0001084739 -0.00547821 -0.0025910805 0.0044049383 3.906638e-05 -0.0030203755 -0.0036327776 0.005383177 0.0058073928 -0.0005516748 -0.0032774566 0.0005086499 0.007979645 -0.0015626359 0.005522531 -0.0040720175 -0.00018287054 -0.0026918473 -0.0016794015 -0.0023683566 -0.0051899212 -0.00018120513 -0.0026317986 -0.0039574695 -0.0050953156 -0.0015781412 0.0038417715 -0.002358793 0.0017412979 0.0055397963 -0.0011758107 0.0033179538 0.0003977181 -0.0015162049 -0.0011651566 0.0044733775 -0.0039162897 -0.002100149 -0.0018481249 -0.0016492851 -0.003426921 -0.002901907 -0.0002211316
police 0.001589843 0.0051008095 0.0037692676 -0.0048425044 -0.0015574212 0.002494732 -0.0063523483 0.0025493412 -0.0072804014 -0.0050523854 -0.0018388339 -0.004437616 -0.0002593076 -0.00057559944 -0.0021675432 -0.0017713958 -0.0029958626 -0.00024885318 -0.0026099046 -0.0052261343 -0.0033919667 0.0031185565 0.002957735 -0.0058396105 0.0040596495 -0.0026725929 -0.0028302337 0.0022599143 -0.001912196 -0.0055133784 0.0035772736 -0.0039728703 0.0041211946 0.0007529288 -0.002025424 -0.0069897315 0.0025825773 -0.0011630493 -0.0034844477 0.008828986 0.0070189326 0.0006421632 -0.0022873685 -0.0036748748 -0.0012305425 0.0035273335 -0.00021811524 -0.0013084984 0.0005337519 0.0026102297 0.0024557693 -0.0054430845 0.002231622 -0.0026355393 0.002986869 0.0030851634 0.000599118 0.001888373 0.0034460928 0.0005582042 -0.0030814991 -0.0011829627 0.00256709 0.0021036891 -0.0010500742 0.0027070334 0.0019109324 0.00039134207 0.0015703373 0.008781856 -0.0029642738 -0.0036263622 -0.000915222 6.485807e-05 -0.0030313826 -0.0042223018 -0.005475382 -0.002916471 0.004845677 -0.0067886007 -0.005890384 0.00045560184 -0.003283489 0.0063806623 0.0035906993 0.0029003762 0.0021440873 -0.0038387738 -0.0044766176 -0.002416411 0.0018924195 -0.0021571314 0.0018731686 0.0002214906 0.0028691536 -0.0061045536 -0.007908208 -0.002172774 -0.0016182611 -0.0031131697
body -0.003306099 0.0022682291 0.0021416212 -0.002621507 -0.00042602685 -0.0020882823 -0.0005928801 -0.0015427085 -0.005341274 -0.0020818647 0.0041637206 -0.0006650725 -0.0015844299 -0.0011490139 -0.0026765452 0.000113501745 0.0010842242 0.0073178327 -0.00022121845 -0.006065298 -0.0031264299 -0.0026994771 -0.0012131707 -0.005926726 0.002318229 0.0005517119 -0.00020313398 0.002599759 -0.0023628662 0.004187025 0.0002366889 0.0018062609 0.0046884906 0.0031119043 0.002128062 -0.0013064771 0.0034825108 0.0035465953 0.0015899905 0.0055298004 -0.0014708916 -0.0013963748 0.0023634746 -0.0025803326 -0.005319664 0.0011854785 -0.004109747 0.0046838373 0.003323567 -0.002712885 0.0048046415 0.00054032507 0.0038508915 0.0037383928 -0.0028335233 -0.0017509194 -0.00093792734 0.0016188881 -0.005475286 -0.00404546 0.0047685555 -0.0029401942 0.0012680633 -0.0021002449 0.0051586786 -0.0010952404 -0.0065666423 0.0026584107 -0.0021295955 0.002803468 0.004985985 -0.00040375066 0.00012692747 -0.0043478636 0.0014078479 -0.0032384857 -0.005610954 -0.0010026863 -0.0017500644 -0.002406839 -0.0036356472 0.0020173443 -0.00022906337 0.0059345267 -0.003359198 0.0019030026 -0.0002631624 -0.005365861 -0.0043229735 -0.0020486177 0.0007995401 -0.0010578316 0.0042383173 0.0011784559 -0.0047079143 0.00054974173 0.0020100356 0.0018975548 -0.00187249 -0.0023782514
california -0.0031512205 -0.003683527 0.0016964807 0.00016021231 -0.004971897 0.0020029428 -0.0037456003 0.0025405495 -0.0062486297 -0.006946006 -0.003492667 0.0038371908 -0.0026884207 -0.0028624218 -0.0049790074 -0.00015036753 -0.0010427838 0.00062585203 0.0073724343 -0.005342838 -0.0008414057 0.0015138596 -0.0038971773 0.00043172928 0.005834079 -0.007200824 0.0015275844 0.0015648562 -0.0037985332 -0.0040792986 0.0021090135 0.005206252 -0.0013107689 -0.000511388 0.0025638046 -0.0014543049 -0.0040646857 0.00875248 0.0054224855 0.0070349495 0.004123875 0.00051776547 -0.0066274763 -0.00739334 1.5298658e-05 -0.005577663 -0.0010597837 -0.0034407154 -0.0017319563 -0.0033065043 0.0007301024 0.0035464321 0.0069350046 -0.005850013 -0.0006996888 0.006347808 -0.002455876 0.002197565 -0.0012533204 0.0013881809 0.0026783866 0.0014518719 -0.003426468 0.0042437688 0.0046491455 0.006414294 -0.004097526 0.0028282136 -0.0020305268 0.008782164 0.0028156724 0.0058286893 0.0006139162 -0.0032945427 -0.0021119856 0.00042516188 -0.0033532197 -0.00034178392 0.0022120548 -0.002359797 -0.00022611229 -0.005441422 -0.0012438177 0.009669568 0.0061127907 -0.002737725 0.0057695615 0.00092869654 0.0035411755 0.002585572 -0.0010843374 0.006076961 0.006973284 -0.0025552458 -0.001592105 -0.003992033 -0.007983854 0.0069530043 -0.004153426 0.0009085878
burning 0.0033489638 7.335503e-05 -0.0019151754 -0.0020981885 -0.0008099712 0.002376864 0.0006549107 -0.0064357365 0.0017223886 0.00024582125 -0.0015107065 -0.001679147 0.0032929133 0.00012829677 0.0021214243 -0.0030640669 -0.00069664774 0.006610573 0.0029915564 -0.0031455103 0.0018846678 0.0038792572 -0.0042009046 0.0024824897 0.0037392424 -0.004899575 -0.0056465035 0.0026313844 0.00071957783 1.0009576e-05 -0.0009506227 0.0017285161 0.003300487 -0.005345895 -0.004706075 -0.0036221482 -0.0011145537 0.0011192459 -0.0016163748 -0.0006932483 0.006912995 -0.002427099 -0.0018654846 -0.00015386548 -0.00091706275 -0.004534659 -0.002201663 -0.002884457 -0.0014243752 0.001034425 0.0054544145 0.0016051523 0.0054805838 -0.0033242456 -0.0019934387 0.00509817 0.0015816024 -0.0017775178 0.0014206086 -0.0016038072 -0.0020489448 0.005004369 0.00055077655 0.0048371903 0.0009596158 0.0022677653 0.00038804163 -0.0006139251 -0.00403505 0.0076217228 0.0010874338 0.0011886681 -0.005402026 0.00011993721 -0.0027320613 0.0014650315 -0.006677286 -0.0006943365 0.0012098518 -0.0012988518 -0.0026536062 0.00083415606 -0.00025724823 0.007619965 -0.0028856078 0.0035820028 0.0046677706 0.0023252463 -0.001050639 -0.0034577579 -0.006173824 0.00029599151 -0.0020777902 -0.0039360295 -0.0036406473 -0.0036002325 0.0010668663 0.0020221644 0.0017957276 -0.0023029593
time -0.0043726023 -0.002909195 0.00033923355 -0.0024615217 -0.003910664 0.0056105414 0.002816247 -0.004499277 -0.004065289 -0.0010927053 -0.0049423617 -0.0011544728 -0.0025490413 -0.0074332007 -0.005811377 -0.0042729583 0.004445963 0.006229804 0.0015420272 -0.0056733913 0.0045506987 0.0018571343 0.0014698816 -0.0055857534 -0.0009467637 0.0011431098 -0.0042783013 -0.003077651 -0.004961228 0.0013579549 6.569233e-05 -0.0013366548 0.004304803 0.0033016496 -0.0018525025 -0.007901712 0.0024554501 0.0066654147 0.0015855338 0.0014447522 0.00517342 0.0003647775 -0.0037421589 -0.005556164 -0.0011584511 -0.0024777877 -0.0010370476 0.0012498655 -0.00021076383 -0.00076000387 0.0024153404 -0.005231935 0.0018603505 0.002325875 0.0034877842 0.0034662904 0.001398635 -0.00014966716 0.0026201217 0.0036297464 0.0022394166 0.0011133665 -0.0021430457 -0.0010642081 -0.0032109295 5.8574853e-05 -0.0013976364 0.0031178333 -0.00063905073 0.009214737 0.0053306874 -0.00016530279 0.0029852705 -0.005392226 -0.0045114793 -0.0036715474 -0.0034945994 0.00052224204 0.0010375176 -0.0064571737 -0.0051598125 -0.0014293689 -0.003831473 0.0019356684 0.0028308036 -0.004262824 0.0018334611 0.00016085203 0.0016019319 -0.0019879644 -0.006689178 -0.00040985082 0.0022655732 0.002858627 0.005044758 -0.003077733 -0.0006683136 0.004654229 -0.002054318 0.0037437482
crash -0.002363308 0.000835211 -0.003565178 -0.0016087699 0.003016651 0.003980639 0.000825571 0.00026788234 -0.0061853207 -0.0028386463 -0.0052147326 0.00086711836 0.0018657964 0.0017790309 0.0030414942 0.00014584776 -0.002736604 0.0025497223 -0.0008630791 -0.005195665 0.0028335846 0.0028359792 -0.0047534797 -0.0037388545 0.00024107174 0.003149366 -0.0012336302 0.004219671 -0.003759727 0.0017954564 0.004846387 -0.0013968353 0.00060820795 -0.0014214378 -0.00030619567 -0.0055129603 0.0045923116 0.005424019 -0.0030560915 0.006400746 0.0012516176 -0.0049984856 -0.0023875379 -0.00260565 0.00013539987 -0.001160785 0.0012647943 0.0045590545 0.0041807448 0.00031304164 0.00016676408 -0.00047378588 0.002422076 -0.002697981 -0.0044214143 0.0043311925 0.0013629819 -0.0034491722 0.0013104668 -0.0013562378 -0.003259542 -0.0007570037 -0.0026257916 -0.0025586076 0.0008678374 0.0017876124 0.00074898073 0.004469663 0.00091793644 -0.0015306385 -0.0041771648 -0.0014652808 -0.0018202005 9.427879e-05 -0.0028479786 0.0031877523 -0.005900169 0.0029111067 -0.0010491103 -0.0047560185 0.0024002893 -0.0021228648 0.0013847919 0.0046463762 0.0050809695 -7.789451e-05 -0.0034818158 -0.004776506 0.0037450313 0.0032990107 -4.0311777e-05 0.00046466835 -0.000542214 2.2486347e-05 0.0033920722 0.0013889202 0.0017634225 -0.0017476334 -0.0037927562 0.0014491427
day 0.0020837842 -0.00072704145 0.005985905 0.0029522295 -0.0037219205 0.006837485 -0.00067112775 0.00042880504 -0.0045854603 -0.00073292 -0.004510159 -0.004400252 -0.0037960464 -0.0011745695 0.0028410568 0.0025286188 0.0040027113 0.007970406 0.001524889 -0.001213992 -0.0002528272 -0.0035077329 0.00254462 -0.00041016954 0.004210763 -0.005014233 0.0031114556 -0.0008146841 -0.0015582924 -0.0027762405 0.0021293517 0.0027830033 0.0023582682 -0.00014165502 0.0014703609 -0.0062974086 0.0022260225 0.0064003807 -0.0035750787 0.0034145904 8.599257e-05 0.00454737 0.0035660712 -0.0025885205 0.0037193492 -0.0009562784 -0.002051061 0.0040588966 0.0042875973 -0.00020073728 -0.0030945705 -0.0056072134 0.0023028487 -0.006143226 -0.003749098 -0.0032312553 -0.0047942935 -0.0043579517 0.002958606 0.0015907341 0.003409645 0.0044589266 0.002554049 -0.0036853568 0.0028049275 -0.0030782854 -0.0026277297 -0.0028289694 0.0011058744 0.0033798572 0.005238011 0.001211 -0.0034537164 -0.0054734126 -0.0035921272 0.00042557708 -0.000427345 0.0007256019 -0.0015440583 0.0017072642 0.0030197839 -0.002892524 -0.0055430867 0.0011823992 0.0061071054 -0.00077636936 0.006395565 -0.003527993 -0.0044783745 0.002049464 0.00060323405 0.003184703 -0.0024476924 -0.0012971704 -0.0012907875 0.0022721929 -0.0020087804 0.0008690048 0.0027857474 0.0028970495
still 0.0017039332 0.0031758747 0.0070867217 0.0016716061 0.0018234664 0.0050612562 -0.004021177 -0.0040726596 0.0015928906 -0.0015359694 -0.0017014747 0.0056419205 -0.0026911276 0.0010587872 -0.0069720545 -0.0011067938 0.0012420919 0.0049415906 0.004209981 -0.0028367687 -0.0015394179 0.0062332726 -0.0028683736 -0.0076835174 0.0019494615 -0.0048259064 -0.0025768154 -0.0033266754 -0.0052720956 0.0023853693 -0.0032617853 0.0024451618 0.0058254106 0.00234034 -0.003665243 -0.0048259813 0.0012317679 0.0026261702 0.00053689344 0.005439181 0.0007697618 0.004004663 -0.0041919295 0.00018684936 -0.0030593916 -0.004398772 -0.006545441 0.0013534336 -0.004292258 -0.0009675447 0.0017984092 -0.0062989695 0.0052815625 -0.0023211564 0.0010341449 0.007146397 -0.0057142098 0.0008358916 0.0030924317 -0.0029340729 -0.0033124767 0.004229214 -0.004334989 0.0048443996 0.00023594001 0.0012766587 -0.00070696895 0.005985905 0.00307213 0.002154636 0.0005173613 0.00035195396 0.0018743156 -0.001146856 0.0019277895 0.00027430197 -0.007428262 -0.0063261893 -0.003435466 0.0005791926 0.002965486 -0.00029763908 -0.00708752 0.0017412668 0.0066626994 -0.00469212 0.0047667334 -0.00201574 0.0026359558 -0.0017039401 -0.0063923527 -0.0021540096 0.0005782607 0.0047418005 0.002429457 -0.0012013434 0.0003924299 0.006274178 0.00057933934 0.00092383457
got 0.0016259438 0.0030998187 0.0043383003 -0.00048439662 0.003347609 0.0052446434 -0.005356139 -0.0064123054 -0.005530442 -0.002150213 -0.0026644228 -0.0001665812 -0.0003538894 -0.0026348643 -0.0023386036 0.0029653965 0.0061169113 0.0058857678 0.0050898287 -0.0013712846 -0.00046107502 -0.0015566645 -0.0063664457 0.0014392516 0.0048196595 -0.005241533 -0.0015461087 -0.0024562115 0.0036345823 -0.0038839884 -0.0010926742 0.0027659968 0.0075471792 -0.0020061713 -0.0043378267 -7.38666e-05 -0.0029566626 0.0016610934 -0.0012598577 0.0025263014 0.0006628212 0.003356638 -0.0003587274 -0.0064042746 -0.004820157 0.0036887408 -0.003761371 -0.0032940325 -0.0013037359 0.0020939407 0.00206653 -0.00035276488 0.0026993474 -0.0013657964 -0.0015974033 0.0060034017 -0.0062340423 0.00305395 0.00044293786 0.0010338123 0.0035506468 0.0040531177 -0.004535896 -0.0039785476 -0.0034657991 0.0063823587 -0.00102824 -0.0011951876 0.0023032324 0.00736952 -0.0023996048 0.005049335 0.0009366513 0.0007501488 -0.00077203155 -0.0020336579 -0.004228883 -0.0027988194 0.005128457 -0.007058047 -0.0006737418 0.0035186221 -0.004817826 0.003287422 0.0042231134 -0.00079694827 0.00096361234 -0.005781295 -0.00075263256 -0.00277684 -0.005024316 0.0050728107 -0.0016117597 0.0017900584 -0.004160582 -0.0018057916 -0.0010723333 0.0020432968 0.0039782724 0.00089242216
first -0.004868449 0.001118955 0.0031163534 0.0016645903 0.0017739536 0.0054838057 -0.00079909875 -0.005270554 -0.006262837 -0.0025226846 -0.00040036574 0.00421724 0.002115218 -0.0042991997 -0.0053018364 -0.005316782 0.005329171 0.0056136316 -0.00010568413 -0.0013295282 0.0026789797 -0.0024072817 -0.0017691044 0.0008989576 0.0025661949 0.000648379 0.0014729726 -0.002121298 -0.004041857 -0.004700325 -0.004672577 0.0034945563 0.0057943636 0.00085367553 -0.0037779068 0.0013013267 -0.0023930399 -0.0010690641 -0.0008062053 0.0047045746 -0.00082890043 0.0030242293 0.00092200795 0.0027829236 -0.004588836 -0.0041283434 0.001526466 -0.0025580865 0.0005159701 -0.0036776704 0.0023312767 0.0009415046 -0.0029882921 -0.001755485 -0.00038291607 0.0045119934 -0.0016222901 0.0031529437 -0.0029401057 -0.0013978026 0.0025739172 0.004243663 0.0006773455 0.00024540926 -0.0025230565 -0.0026340922 -0.0060843946 0.0039014323 0.0048745 0.006328846 -0.0007854403 5.430801e-05 -0.003738962 -0.0022705097 0.0036064833 0.0010559632 -0.0009198184 -0.002223831 0.0007671462 -0.001731504 -0.00012246138 -0.0018638195 -0.0039533847 0.0015173687 0.0020265458 0.0044782534 0.000951102 -0.0034582203 -0.004963002 -0.0012871281 -0.00061021664 0.0044047446 0.003979785 0.004156249 0.0038812251 -0.0017019917 -0.0042573586 0.005139848 -0.0010317604 0.0003611756
storm 0.004299562 -0.0005805551 0.002326741 0.0018332823 -0.004542036 0.004247723 -0.0052573807 -0.0016899707 -0.0040420135 -0.0025265731 -0.0011265097 -0.004110095 0.0041209445 -0.001193179 0.0016390171 -0.0038746677 0.003743685 0.00548075 -0.0014852145 0.004121154 0.0028459823 0.0012700848 -0.0009393286 -0.0008556843 0.0055692606 -9.8901975e-05 0.00083978457 -0.0009782591 -0.0008360569 0.0018634284 0.0015278843 -0.002005662 -0.0032118098 -0.004017773 0.0035100535 -0.00027412278 0.00064372784 0.0017759792 0.0013692544 0.0020498352 0.002786184 0.002153342 0.00045475506 0.0010958682 -0.004293819 -0.0023533246 0.003696616 -0.0047832555 -0.00010483887 0.00360322 0.00036650512 -0.0021060205 0.004573095 -0.005448404 -0.0045863567 0.003836164 -0.00039129218 0.003847226 0.003959045 -0.0029279192 -0.001862474 0.003949219 0.0011427673 -0.0038800086 0.0022786008 0.0027706923 0.0016276134 0.0033124336 0.004554361 0.0021362298 -0.00069774885 -0.0036249347 -0.003978317 -0.0049220705 0.0033427952 -0.0044000717 -0.0012590579 0.0034098588 -0.004294092 -0.0025765921 0.0022260163 -0.0008758437 0.0024733238 0.0025198816 -0.00012411393 0.003755717 0.0038300874 -0.0028548527 -0.003493417 -0.0009914181 0.0024121637 -0.001995984 0.0008688986 -0.004655249 9.8669945e-05 0.0036914847 -0.0018447922 -0.0009883113 -0.0012811234 0.004919758
buildings 0.0034745845 0.0049758535 0.00047482463 0.0005689085 -0.004744807 0.0046754186 -0.00554275 -0.0041434113 0.0016751633 -0.00033482793 -0.0024861419 -0.0029069085 -0.004110028 -0.0043663103 0.00068576913 0.00023390535 0.0043650074 0.0026844144 0.006196883 0.0012860791 0.004753769 -0.0018231036 -0.0014793678 -0.0036466285 0.0053524547 -0.0020616618 0.002036227 -0.004013339 0.0028007964 0.0013231384 -0.0004831661 0.0002899143 0.0036072223 -0.003701601 0.0012879269 -0.0046879966 0.0024418137 0.0040936954 -0.003910285 0.0040915133 0.0014514867 0.002280122 0.00073204376 -0.007481283 -0.0016133406 -0.004901565 -0.004645846 -0.00068806065 0.0029319574 -0.0032592174 -0.0017528291 -0.004523886 -0.00030262236 0.0026804348 -0.0020830706 0.006142575 -0.0042334255 -0.004590626 -0.0027882329 -0.001686396 -0.0008448261 -0.0007164109 -0.0041182144 0.0030077703 -0.0040366463 0.0025114007 -0.006205735 -0.0027270194 -0.0011175373 0.008208383 0.0039260406 0.00071693445 0.0037361095 0.003132516 0.0036657709 0.0023008434 -0.007439643 -0.003823988 -0.002777235 0.0010527292 0.0029706215 0.0011981233 -0.0053776503 0.004191092 0.0019764162 -0.0031103378 -0.00013121893 0.0009331139 0.0028699047 -0.0008659489 0.0008391909 0.006025794 -0.0037165526 0.0005203402 0.0031792559 -0.004536064 -0.006207915 0.0024842692 -0.0005898761 -0.0022331914
going -0.0014943774 0.0047793393 -0.0022505953 -0.0020323265 -0.003989201 0.0016677987 0.0026645083 -0.0062241657 -0.006877781 0.00012670265 0.0017196366 0.0030096087 -0.0016283774 0.0017115894 -3.6399197e-05 -0.0006526566 0.005234652 0.00697624 -0.0004455026 -0.006200724 -0.001248928 0.004030541 -0.0024871996 -0.0016576882 0.004210325 -0.003135491 -0.0038253958 -0.0006470622 -0.002283175 0.0020093778 -0.00058671896 0.0039831377 0.005153375 -0.00092811167 0.0036002626 -0.0066687977 -0.0032140594 0.0030631179 0.0020451392 0.0025655823 0.0027378243 -0.0042012073 0.0029802425 -0.0028833188 -0.00554401 0.0025876262 -0.0046707117 -0.0028558457 -0.0017435129 0.004632542 0.0013917809 -0.0005112531 0.0043513 0.002727955 0.0010384151 0.0034404576 0.0023115284 -0.002716823 0.0019349969 -0.002955175 -0.0032065245 0.00041085182 0.0038031004 -0.00053588237 -0.0016004308 0.0004450921 -0.0050467392 0.000102517464 -0.0017597593 0.002400494 -0.0005908225 -0.0003302589 0.0030225487 -0.0062069013 0.00062591024 0.004833039 0.0012405886 -0.0030985724 -8.8380024e-05 -0.0072293486 -0.0008446713 -0.0024452272 0.0018758571 0.009127069 0.0034107815 0.0019842822 0.00080346427 -0.002687182 -0.004276007 -0.0049134223 -0.0068542203 0.0047375155 0.00046747574 3.3684257e-05 0.0031826198 -0.005044703 -0.006263554 -0.0011392733 0.0049581164 0.0039293393
man -0.0030091263 -0.0024639058 -0.0031820913 0.00085352943 0.00037758626 0.00572892 -0.0020601475 -0.006529988 -0.004271238 -0.0052478877 -0.0035985569 -0.0027441964 0.0034908736 -0.007862529 -0.0059683826 -0.003757225 0.004374169 0.007624144 0.005915501 -0.00210262 0.00076536555 -0.0019079747 -0.0027414276 -0.0058760475 -0.0014804975 -0.0050034006 -0.0002442008 0.0012283656 0.0026893544 -0.0035435124 2.0971987e-05 -0.0043308004 0.006892383 0.0016133592 -0.0034724695 -0.0015449141 -0.0002855224 0.00026650695 -0.0015705754 0.0011505407 0.0040836595 -0.0001860012 0.0015819746 -0.0020103876 0.0040487833 0.0030976834 -0.003009365 0.002850947 -0.0026305753 -0.003357818 0.0013006751 -0.0015706756 0.0039215046 -0.004060236 0.0016635661 0.005052584 -0.0021413676 -0.0030511867 -0.0025774892 0.0008056875 0.0029156355 0.004365538 -0.00036722 -0.00022826761 0.005820338 0.005385656 -0.0036805843 -0.0022989486 0.00208414 0.0037277378 0.0010954269 0.0013772801 -0.0050780983 -0.0028710896 -0.002608943 -0.0008745224 -0.0057065943 0.0020164757 0.005415816 -0.0065155616 0.00012596065 -0.00214915 -0.002904952 0.0059689865 -0.0024200494 -0.0028118151 -0.0024185164 -0.0055853906 0.0040973388 -0.005003805 -0.006950777 -0.0021647727 3.1189593e-05 -0.0042994814 -0.001037757 -0.0068110176 -0.0016885344 -0.0017835662 -0.0040074405 -0.0013187266
full -0.0038399382 0.0033965292 0.003482908 -0.0013860314 0.0017031083 0.0024773958 -0.001672523 -0.0075073056 -0.0032294681 -0.006878594 0.003917374 0.0041922256 -0.0023307852 -0.008496015 -0.0039384686 -0.006095449 0.00451034 0.0031401329 0.002984594 0.003135387 -0.0014850755 9.878217e-05 3.7160728e-05 0.002170132 0.002862991 0.0013882753 0.00026161704 0.003146158 0.0028398938 0.003701113 0.0007449527 -0.000946253 0.0067329984 0.0040540476 0.0027325656 -0.0067931474 -0.00469478 0.0041700937 0.000957623 0.0018236497 0.00015367074 0.00039482448 -0.00483256 -0.0016271308 -0.0017528542 -0.0035315163 -0.0076281745 0.00090044475 -0.00016527879 -0.005184146 0.0025569429 -0.006149683 0.0071310233 -0.0039656744 0.002791596 -0.0019731207 -0.0063208183 0.0012689208 -0.004236365 0.0030133675 0.0019484286 0.00028770274 0.002777371 0.003491168 -0.002111834 -0.0021564132 -0.008464242 2.7326398e-05 0.0040726354 0.010907308 -0.0023476845 0.001440808 0.00084392366 -0.0057764794 0.00056309404 0.0004763765 -0.007349083 -0.004893196 0.00019673628 0.00090972264 -0.0005843636 -0.0022442434 0.0018168098 0.009325772 0.0068608215 -0.0007747335 -0.0023722916 -0.0001075708 -0.002696768 0.0033430688 0.0017467971 -0.0005537164 0.0046202852 -0.002515519 -0.0050256676 -0.006286966 -0.0024789874 -0.0012337341 0.003317479 0.004061783
nuclear 0.0029578337 0.0012906018 -0.0023143706 -0.003154044 -0.00060534367 0.00718657 -0.0029988775 -0.00013267937 -0.0049110614 0.0014359937 -0.0019290443 -0.0006370478 -0.0017754532 -0.0050222212 0.00045702228 0.0008995714 0.0022291008 0.0027972783 0.005721767 -0.0014443736 0.003042746 0.0008277357 -0.004025861 -0.0008232753 -0.0016995658 0.0012620387 -0.0027213474 -0.0019873502 -0.0034087826 0.0025328007 0.0011504019 0.0035708807 0.0018351887 -0.0016197293 0.0031062067 -0.0023982308 -0.002347516 0.003964447 0.005734309 0.0058848695 0.00023058512 0.00021992487 0.0025338395 -0.006612102 -0.0014340188 0.0024561128 -0.0035093827 0.0008234237 0.00080409023 -0.0046712933 0.0011281054 -0.0024003044 -0.000977432 0.002729041 -0.002561999 0.0005184044 -0.0024230587 0.0033855059 0.001573356 -0.00091574463 -0.004094654 -0.002153874 -0.002430961 -0.0035261705 0.005027409 -0.0007814974 -0.004558971 0.0069566364 0.0025834069 0.0058348794 0.0004755188 -0.0010243525 -0.0007261168 -0.0010884017 -0.00030254302 -0.0014183075 -0.0027828552 0.0021865924 -0.0025618805 -0.006931482 -0.0025584649 -0.004524037 -0.00020573016 0.0005067232 0.0017806923 0.0014920885 0.0038859667 -0.0010543249 0.003981702 0.0021513496 -0.007153995 0.002499889 -0.0017348072 -0.0021981897 0.002464811 0.0004926243 -0.0011262689 -0.00015540073 0.0034435156 -0.003315431
killed 0.0036052647 0.0040241494 0.0006586826 0.0021405492 -0.0043488825 0.0069896267 -0.00012729166 -0.005198876 -0.0028755413 -0.0011225091 0.0019009694 -0.0024697685 -0.0021309173 -0.004769387 -0.0072730165 -0.00080560497 0.0032131318 -0.00048201307 0.006317378 -0.005450575 -0.002157409 0.0038307193 -0.0038988676 -0.0038389831 0.0074532246 -0.00615049 0.0018077502 -0.0010072533 -0.002243677 0.001542913 0.0014213988 -0.0025638228 0.0028021976 -0.0046977806 0.0026599371 -0.0028992346 -0.0018201867 0.0056997538 0.0017818098 0.0048839976 0.004374698 -0.0047344137 0.001855139 -0.006190532 -0.0048142653 -0.004445551 -0.0031534561 0.0018777632 0.0038685447 -0.004208084 0.0031797257 0.0023592077 -0.002359005 -0.0017460627 -0.0035442654 0.0042441417 -0.0030014054 -0.0017875171 0.0003931974 0.005489729 -0.0048090513 -0.0021553924 0.0014773237 -0.0009183551 -0.0021046672 0.00059902895 -0.0042051435 -0.00022009188 -0.0006512459 0.0064305407 0.0020618723 -0.0003942417 -0.002920227 0.0021787055 -0.002703222 0.004646708 -0.00634491 -0.0014873064 0.00053736137 -0.00754886 -0.0049637705 -0.0020287775 0.0019915844 0.008256464 -0.002789799 -0.0031441948 0.0047228965 -0.003886796 -0.0032181982 -0.0035143194 -0.004430908 0.0052686795 -0.0010468218 0.0023023668 -0.0021798832 -0.004741286 -0.0077818986 0.0040257727 0.0021586644 -0.0018166908
know -0.0019042151 0.0014441176 -0.0016104571 -0.002034648 0.0012126679 0.004994646 0.0006467378 -0.0041230614 -0.0061991615 -0.0023023924 -0.0024252753 0.0011790062 0.00020738358 -0.0071019554 -0.0064620893 -0.005790354 -0.0011443071 0.004382048 -0.0021073543 -0.005664808 0.00013220187 -0.003971421 0.0018381927 -0.0060965936 0.0008002433 -0.003678004 -0.004412984 0.0013671803 0.0034955402 0.003198139 0.005081917 0.0033620454 0.003974086 -0.0006510374 -0.0032279608 -0.0037324836 0.003090652 0.0048384885 -0.0015799401 -0.00036570357 -0.0026205883 0.0036794662 0.001266385 -0.005883712 0.0009458778 -0.0018272664 -0.0031000192 0.0025124126 -0.0028370267 0.0012304797 0.0051215375 0.003820435 0.0003212664 -0.0017198289 -0.004411901 0.0038333517 0.00091386784 0.0026750949 -0.00039736836 -0.001963155 -0.0011150013 -0.0014947277 -0.004415529 -0.0032283482 0.00050220767 0.0061292183 -0.005429627 0.0033275876 -0.0031523104 0.0095073795 -0.0037266456 0.0013467871 -4.6215162e-05 -0.0037417593 -0.0046156226 -0.0041537187 -0.003964822 -0.0010301338 -0.0036545976 -0.0050074244 -0.0057917787 -0.0016201381 -0.006804197 0.005938167 4.758005e-05 0.0045627416 0.0024989177 -0.00549316 0.0004718542 -0.0009976402 -0.0048226 0.004754536 8.1617465e-05 0.0005165044 -0.0024997822 -0.0024381697 -0.003740362 -0.001440925 0.0036846874 0.0030974231
world 0.0010047972 -0.0003937883 -0.00010809261 0.004714758 0.0038665084 0.004011235 -0.000755603 -0.0022965532 -0.0011418934 -0.005943188 -0.0014788078 0.0021521486 -0.0029113858 0.0013442469 -0.00023473364 0.0016394798 0.0022733873 0.0016083313 0.0005760202 0.0017040574 -0.00070624566 -0.0023632909 0.00047176535 -0.0022848262 0.005604933 -0.0019983533 -0.0032432037 0.004871359 -0.00018128299 -0.0033797421 -0.0034989838 0.0041089742 -0.0018503569 0.000116312294 -0.00068889733 -0.0053281216 -0.0003688539 0.0005590468 0.0052771964 0.0002354443 0.0032271878 -0.0023097915 -0.004468834 -0.00444119 -0.0018222035 -0.00036800065 -0.0014493518 0.0045222663 -0.0037056303 0.004398692 0.0022021057 -0.00021921676 -0.0014679419 0.00093989685 0.0040220595 -0.003231481 -0.0028892544 0.00046523515 -0.005339319 0.002697489 -0.0032466275 0.0017071327 -0.00020924139 -0.0034177466 -0.0030575383 0.0018174323 -0.0023310052 0.006428794 0.0010257626 0.003588108 -0.003897949 -0.0027451508 -0.0029906793 0.003671286 0.0005385351 0.002107752 0.0014317929 -0.0009950405 0.004275056 0.00056941796 3.6743353e-05 0.0009822986 -0.0012885175 0.00016186593 0.0053631896 -0.002302376 0.0027951782 -0.0053957445 0.00061469123 -0.00041105854 0.00084641494 -0.00273918 -0.0032092182 0.0039113397 0.0023477331 -0.001065292 -0.006160326 -0.0017243352 0.0033831852 0.0018202496
love -0.0041341484 -0.0039686584 -0.0028542164 0.0024318183 0.0010251219 0.004956778 0.00023214436 -0.00545298 -0.005155202 0.0023438395 0.002798063 0.0011186706 -0.0014702635 -0.0056325016 -0.0038112192 0.0012568386 0.0034664578 0.003439708 0.003572134 -0.003927186 0.0030972047 0.0031016716 0.0033027262 0.0008966561 -0.0018341363 -0.006206398 -0.004774158 0.0030251087 -0.0019479581 -0.00020542048 0.0012989307 0.004039239 0.0049958597 0.00020153791 -0.002802363 -0.006143831 -0.0029278705 0.0037877774 0.0025450443 0.0021054875 -0.0010648617 0.00013547509 -0.0024191148 -0.00647 -0.0018293617 -0.0051878965 -0.005481834 0.00016169368 0.0042367484 -0.0032498306 -0.00033293688 -0.0033016675 0.0058862143 -0.0021547468 0.0014178588 -0.002161295 0.0009760689 -0.0015118545 0.0020055524 0.004459538 -0.003090605 -0.002292034 -0.0011567138 0.0026750595 -0.0007668999 -0.000451166 -0.002596683 0.0058239084 -0.0016562631 0.0062858625 -0.0020554785 -0.004011918 -0.0021285522 -0.00012351452 -0.0033471377 -0.0013227125 0.0012653377 0.00019217352 0.0019329719 0.0019576289 0.0015440336 -0.0048948764 -0.004105419 -0.000898132 0.005265776 0.004441637 0.0031051172 0.003312718 -0.0015556277 -0.0042247963 -0.0053888015 0.002863458 0.0010708768 0.0040489007 0.00059904816 -0.005691697 0.0021407416 0.00011684589 0.004735921 -0.003936503
back 0.0015018916 0.0018025878 -0.0016907998 -0.0037461251 0.00046437263 -0.00067843334 0.0027254361 0.0030946203 -0.00046950064 0.003255457 -0.0049366904 0.002535442 -0.0013945362 3.6536883e-05 0.0002581721 -0.0056658206 0.001126847 0.007929991 0.0009713007 -0.00029087914 -0.002936971 0.00563259 -0.0050667757 -0.0020673745 0.0030516535 -0.0037588426 -0.0013743525 0.002191712 0.00062207883 -0.0017180068 -0.0035297514 -0.002898977 0.00461334 0.0022146862 0.0030787159 -2.6712256e-05 0.0033796038 0.00026384584 -4.985186e-05 0.002357196 -0.0005299163 -0.0045830626 -0.0020382316 -0.0015761735 -0.0054901154 -0.00058681174 -0.0008978784 -0.0047741905 0.0022654952 0.0006105977 0.00059680204 0.0009379865 0.00014644559 0.0019503902 -0.003832813 0.001007856 -0.005079395 0.001136287 -0.0027755215 -0.0018149157 0.0006715589 0.0026470157 0.0027003335 -0.0041457135 0.0018581273 -0.0020610068 -0.00053075975 0.0031609314 -0.004860788 8.638707e-05 -0.003951082 -0.0038275158 -0.0023879658 0.0019899441 -0.003977137 -0.0027834205 -0.006554914 -0.002708728 0.0017498598 0.000109692446 -0.0028679783 -0.0046313247 -0.0033450369 0.007536866 0.0020881747 -0.0019636252 0.00032786943 -0.0015640961 -0.0030103892 0.0027503117 -0.005028799 0.0040742075 0.00286966 -0.0023330078 0.004291687 -0.0036793244 -0.0036347725 0.0016756393 -0.0042201723 -0.0030236035
youtube 0.0048775533 0.0015828604 0.0052913227 0.0044405665 0.0025091958 0.0017627323 0.00239473 0.0036383942 0.0039862953 -0.0011699789 -7.254235e-05 -0.0038862221 0.0011673546 -0.0033412734 -0.002003975 -0.0016287089 0.00073355576 0.005096669 0.0016961972 -0.0008154068 0.004591694 -0.0036611517 -0.0046982532 -0.00083210616 0.002097215 -0.0021398729 -0.00083346834 0.0032008174 0.002662446 -0.0041991062 0.004192236 0.0024405038 -0.0015606562 -0.00059707015 0.0035312905 -0.0061957208 2.8241402e-06 0.006112913 0.0051099383 0.0012694048 0.0028343913 0.0036386044 -0.0015940055 0.0019988373 -0.0009788069 0.0037149931 0.0023774053 0.0044273 -0.0027020017 -0.0013427301 -0.00242364 0.002490567 -0.002729614 0.001948377 -0.0050279237 -0.0019611074 -0.0049370136 -0.00091273594 -0.0047551286 -0.00086167833 0.0046868115 0.0001464587 -0.0028441316 -0.002396626 0.0031645335 0.00210251 -0.00351298 0.0024153376 -0.0020975203 0.006599792 0.004685535 0.004547529 0.0033050438 0.0030098923 1.8795487e-05 -0.0051558134 -0.002614805 -0.0017287728 -0.0020852087 -0.0031817062 -0.0008511623 2.2936342e-06 -0.0027278843 -0.0024438808 0.00542034 -0.0009160153 -0.004132434 -0.0025943785 0.0050862697 -0.0020448465 0.0010770241 -0.0027333233 -0.0007963702 0.0016397502 0.00021151165 -0.0027743625 -0.005428619 -0.0008608039 0.0008518543 0.003287376
suicide 0.005039782 0.0039872727 0.0041882005 0.0006449224 0.0009879353 -0.00091203325 -0.0062356726 -0.0075240848 -0.006918222 0.00035297792 0.00067414046 0.003257963 -0.002023758 -0.008600916 -0.006879728 0.001013223 0.003289442 0.0013584944 0.0057633515 0.0029849196 1.5831305e-05 0.0004954877 0.0003752705 -0.0026146115 -0.0017231688 -0.0038137503 -0.0019319267 0.0031404838 0.00039692124 0.0035864243 0.0011249724 0.0033074091 0.008119491 -0.0006899422 0.004074899 -0.0077012703 -0.0015976127 0.0051600058 -0.0032357448 0.0059133195 0.00665785 0.0017067813 -0.005587614 -0.008322038 -0.005167426 4.2409065e-05 -0.007459232 -0.0013009758 -0.0020505227 -0.0026601767 0.0033982054 -0.0037118685 0.005732463 -0.0064113797 -0.00019760546 5.0443403e-05 -0.0073641194 -0.00078045914 -0.00499319 0.0006928266 0.0007867516 -0.0015201147 0.0040364023 0.00066574384 -0.002866908 0.002796937 -0.005632514 -0.001094932 -0.0032529067 0.0077534644 0.0019530565 0.006505133 0.0017020678 -0.0016075775 0.0019481761 0.0035751045 -0.0009822104 0.00062993326 -0.001014674 0.001880533 0.0027610718 -0.0011097214 -0.004411024 0.006893066 0.0045356913 0.002783208 0.0049964497 -0.00463853 0.00072136865 0.0035780156 -0.004968509 0.00015940606 0.006201822 0.004507887 0.001238534 -0.0075015924 -0.0027622848 0.0023830172 0.0032983082 0.006104434
see -0.0028650367 -0.0043990617 0.0047202073 0.0019477605 0.0036538295 -0.0017130179 -0.0014177806 -0.0070586563 -0.0061835386 0.0026506924 -0.0045767883 0.0010139268 0.0018893564 -0.00049195404 -0.004487981 -0.0045590214 0.0012698565 0.007912896 0.002866489 0.0025722666 -0.0043445546 -0.0021126452 -0.006299294 0.0013085156 0.0024038248 -0.0054864637 -0.0021846346 0.0047197244 0.00292309 -0.0038285067 0.00095338497 0.0018478119 0.001008803 0.001336029 0.0022414676 -0.0017948826 -0.0016098336 0.0045204544 -0.0013517893 0.005031508 0.005507629 -0.002983157 -0.0019284067 -0.0021355734 -0.0010921565 -0.0010812943 -0.0022698247 -0.00048596258 0.003955203 0.0019666497 0.006457688 0.003450951 0.005939341 -0.0017693028 0.0033198243 0.0028424666 -0.0015458872 0.0043234564 -0.0023029048 0.0033122639 -0.0024146137 -0.00057689316 -0.0043923585 0.0032386242 -0.003840028 0.005702109 -0.0034884105 0.0001767569 0.0040333616 0.0069638845 -0.003147146 -1.4718658e-05 -0.0013907908 0.0036543077 -0.0051748613 0.0021513419 -0.0052994927 0.0023641507 -0.0019755978 -0.004407421 0.0030011404 -0.00016949965 -0.006677283 0.006934478 0.006241687 -0.0021203652 0.005829546 -0.0005112865 -0.0035792936 -0.0017872984 -1.2838196e-05 -0.0024158293 -0.0035441627 0.0050722156 0.0028469218 0.0009805845 -0.0071374536 0.004734276 -0.0008713372 -0.0024810391
fires -0.0044688615 -0.00022116578 -0.0022069614 0.0044027576 0.00030717382 0.007008907 -0.0063922303 -0.0058276467 -0.0032005897 0.00066630833 -2.0397547e-05 0.004345918 0.0027266801 -0.006349459 0.0019024615 -0.005511587 0.0033953143 0.0055469885 -0.0011115831 0.0025490224 -0.00078699854 0.0024110486 -0.004459383 -0.002342186 -0.002582445 -0.0032069664 -0.0039234115 0.0038980164 -0.0008724261 0.003355458 -0.0039851763 0.0033861496 0.005988613 -0.0038833574 -0.0018229783 -0.0042945435 -0.0005869247 0.0077771484 0.0027972993 -0.0005535438 0.0066322675 0.0047127707 -0.004063507 -0.0034602897 -0.0008544219 -0.0041444334 0.0018591129 0.0033805992 0.0013634901 0.0040335576 -0.002347499 -0.0044628484 0.00022851024 -0.002182825 -0.0064165546 0.0043651685 0.0009938293 -0.004972432 -0.002729335 0.0056901285 -0.0057118246 0.005545626 0.002762164 0.0055681122 0.0017782161 0.00037170865 -0.0031524345 0.0029512704 -0.003086394 0.0071362504 0.0048628715 0.000444443 6.6676835e-06 0.0015963314 0.0010454005 -0.0026015933 -0.0017750157 -0.0029398275 -0.004055274 -0.00019295834 -0.0014296211 0.0020170673 -0.0042822957 0.0065954747 0.0021959972 0.0011596439 -0.00073670945 0.0033721284 -0.0021439632 -0.0019291061 -0.0037660373 -8.380412e-06 0.002457912 0.0035460342 0.004483515 -0.0037599113 -0.0059550246 0.0040855333 -0.00085860904 0.004479906
dead 0.0051259394 0.0036434843 0.00087199535 0.0037213238 -0.0025412655 0.0034883625 0.0021463917 0.00082991255 -0.0016230822 -0.0036842187 -0.0011372473 0.00025131195 -0.0030253287 -0.00017520844 -0.0012382604 0.0021846055 0.00561527 0.0076086796 0.0020937552 0.0033516693 -0.0047828997 -0.0026724243 -0.0030248638 -0.00081879634 -0.0015925624 -0.0055611324 -0.0051429393 -0.004569707 0.003486159 -0.0021493672 0.0002497637 0.0016732194 0.00731078 -0.0038244412 0.0010722233 -0.0012623207 -0.004346955 0.0067975214 0.0040483894 0.0069842916 0.0043546846 0.003203305 -0.0030370438 -0.0010806691 0.0024428759 0.0035576466 -0.007715882 0.0018683589 0.0020256406 8.665863e-05 0.0051304693 -0.005606906 -0.0006959577 -0.004182612 -0.00017234629 0.0019598317 -0.0059521757 0.00035603496 -0.004456813 -0.0029492166 -0.0012191555 0.0018689317 -0.00016404851 0.0033554959 0.004292339 0.0027830624 -0.0030027833 0.005304595 0.002504466 0.009790997 -0.0016900009 0.0013044501 -0.0006894991 0.002486382 0.0035032006 0.0005724808 -0.0028909305 -0.00088340195 -0.000704366 -6.796075e-06 0.0028730098 -0.005713569 -0.005542679 0.0055253427 0.0009736718 0.0047256593 0.0029455633 -0.0004987179 0.0025196588 -0.002349014 0.00278014 0.002237074 0.0015340032 0.00057046465 0.0033449372 -0.005713621 -0.0043710703 0.0041728728 0.001829052 0.0030444101
bomb 0.004738749 0.00052663503 -0.0026028869 -0.0005378875 -0.00021116575 -0.0012160692 -0.0041583376 -0.0062787463 0.0006569336 -0.00037176377 -0.0025984936 0.004647903 0.0018887111 0.0012290776 -0.0054516336 0.0011410478 0.0053218794 0.0059769945 -0.002413538 -0.0063463403 0.00029487975 -0.0012155169 -0.002728744 -0.006580905 0.0030132097 -0.003343769 0.0029112822 0.0026441517 -0.0030915048 0.0023957086 0.0017036952 0.002135714 0.0018577584 0.0026710762 5.107918e-05 -0.00020833577 0.002530105 0.006640991 0.0018124526 0.0017934967 -0.0011739206 0.0035088323 -0.005835992 -0.0070528015 -0.00040203848 -0.0021062305 -0.008320141 -0.0020131872 -0.002117258 -0.0048914896 -0.00015115128 0.002370186 0.0067852153 0.0028483802 -0.0029440683 0.0039239842 -0.005822177 -0.0048733735 0.0027977757 0.004480944 -0.004051506 -0.0034269013 -0.0055709276 0.0012204617 -0.0031943962 0.0074392934 -0.0064142602 0.0032342102 -0.0014528165 0.010958251 -0.0029271978 0.0060715666 0.0031664933 -0.0065456578 -0.0033656964 0.0020438856 -0.0009870945 -0.005100702 0.0054059415 -0.0059948214 -8.1152575e-05 -0.0025298311 -0.0027857893 0.007479944 0.00081881124 0.0009578689 0.0013185232 -0.004337694 -0.0026370026 0.0011239598 -0.0041361866 0.00042039016 0.003021496 0.005207279 -0.002049248 -0.0033545105 -1.2573754e-05 0.0006730816 0.0007735025 -0.0026174968
watch -0.0012466963 0.0054697585 0.0052099833 -0.0012080311 -0.0029627888 0.004440526 -0.0021326495 -0.005494749 0.002778635 0.0010362894 0.0016878906 -0.0015436208 -0.00268502 -0.004340312 0.0026120278 -0.0022255199 -0.0018621482 0.0047698533 0.0054644584 -0.0019213787 0.0008467635 -0.0040476844 0.0015683374 0.002100623 -0.002167729 0.0015851073 -0.006165797 0.0026150567 -0.0025406086 0.0043443097 7.7472454e-05 -0.00053468946 0.0021535591 0.0014311327 -0.0012382735 -0.0010988634 0.0019525349 0.0045880396 -0.0012810944 -0.0019784207 0.0031391315 0.00056028354 -0.0020378614 -0.0019515386 0.0038749403 0.0013009727 -0.006469395 -0.004242697 -0.0012882006 0.0009087782 0.0023412295 0.0036924873 -0.0030160795 -0.0017610058 -0.0040192083 -0.0015462544 -0.005160528 0.0025335832 -0.002993624 -0.00089977117 -0.0010698898 0.0030743962 0.001146203 -0.0028490713 0.0012228771 0.005650957 -0.00576109 0.0019995105 -0.001181781 0.0062617213 7.919464e-05 -0.003290343 -0.0032694126 -0.0054037273 -0.004135089 0.0044283285 -0.0041319584 0.00030086492 -0.004036368 -0.000995693 0.00021781091 -0.005708821 -0.002644179 0.004856967 0.00067897275 -0.003310995 0.005579175 0.0014768057 0.0045871995 0.0012823769 0.0025426345 0.004053609 0.0025292516 0.004157701 0.00042624166 0.00036046922 0.0022594437 0.0013618591 0.0025380503 -0.0033342931
think -0.0024916492 0.004090385 0.004453181 0.002510593 0.002968695 0.0048086364 0.00014728229 0.0014215753 -0.00011501848 -0.0045436486 -0.0015566004 -0.0028292723 0.002247239 -0.0053372737 -0.004279325 -0.00337673 -0.0028991022 0.005733235 0.0061176135 0.00060087454 -0.002853735 0.0037644217 0.00051002484 -0.0036240937 0.00033468785 -0.003639459 -0.0059409817 -0.0008224046 -0.00026941183 -0.005263821 -0.0044677635 -0.0032811859 0.0055231354 -0.0026360285 -0.003401702 -0.0066090557 0.001014314 0.002489713 -0.0008920853 0.0054736384 -0.00077944185 0.003301463 -0.006076071 0.00033541294 -0.00033759678 -0.0038469117 0.0020678686 -0.0038079878 -0.004687422 -0.0034640054 0.0031388944 -0.0052230153 -0.0020490887 0.00088118174 -0.0020190799 -0.0033988669 -0.0023993591 0.0047854404 -0.0014632569 -0.0038648294 -0.0006921497 0.0040065413 -0.003196801 0.00049739523 -0.0004892085 -0.00061125273 -0.006667003 0.0060824873 0.004530362 0.004185545 0.0036776168 0.0011390849 -0.0013269704 -0.00037519538 8.499654e-05 0.0026842037 -0.006538096 -0.003401558 -0.0024207456 0.0027592464 -0.0013185123 -0.005319638 0.0028289035 0.0067088455 0.0026121612 -0.0012251368 0.001825378 -0.0045491 -0.00058410154 0.0035766114 -0.002697238 6.323635e-06 -0.0014886177 -0.00011028972 0.0008763784 -0.003328751 0.00041331188 0.0055674883 -0.0017895262 -0.0016227685
accident 0.0038796077 0.0015102649 0.0012678293 0.0045950287 -0.0019526335 -0.0016219848 -0.0034740902 -0.006114719 -0.0053333943 -0.0011473288 0.00090058456 -0.0030546703 0.0014715863 -0.006232077 -0.0058095558 0.0025607368 0.0018271294 0.006939987 -0.0011144838 0.0017366778 0.0006158338 -0.0019093729 -0.0060903584 0.00237341 0.005373325 -0.0009492019 -0.00064417295 1.8847417e-05 -0.005073759 -0.0035961885 0.0005094668 0.00036818747 -0.0005785866 -0.0006351471 0.00031754992 -0.0054594777 0.002217511 0.0005295013 -0.002800797 0.0031790163 0.0020846878 0.0010676576 -0.00071382633 -0.0041803434 0.0040781586 0.0033031995 -0.0054993783 0.000507462 0.003979403 -0.00375862 0.0050700093 -0.00082416966 -0.00032667068 0.0022033849 0.0022533932 0.004234268 -0.0017004681 0.0012346015 0.0037475047 -0.0036774501 -0.005270909 0.003897777 -0.0048670303 -0.0018666862 -0.0019047699 -0.0005738545 -6.077484e-05 0.0002592373 0.0050472217 0.001303394 0.0024405853 0.0052277017 -0.00036087172 -9.032757e-06 0.0027621363 -0.0015726386 -0.0045736777 0.0020198186 -0.002382576 -0.0038547176 -0.004266686 -0.0017163907 -0.004485781 0.007577043 0.0042350665 0.0034319877 0.0030623006 0.0026686795 -0.0029123556 0.0021617184 -0.00595356 -0.0004737088 -0.0019958192 0.0037059162 0.0034947784 0.002374632 -0.0026273194 0.005662019 -0.0038461615 -0.00021021673
today -0.004869683 0.0048239506 0.006199607 0.0026071651 0.0037238577 0.0052625746 -0.0060993657 0.0021321906 0.002922809 0.0027980495 0.003629169 -0.0038512186 0.002040738 0.00020008249 -0.0036043848 -0.00415642 0.005454775 0.005145706 0.00134819 -1.2219558e-05 0.002086377 0.005878273 -0.0020375391 -0.005045329 0.0030378168 -0.005795803 -0.00041830866 0.0018242876 0.003184244 -0.0023470703 -0.0042526997 -0.0018924903 -0.0020138766 -0.0017138789 -0.000401944 -0.0038968218 0.003261187 0.00075668324 0.005192191 0.00090226915 0.0010838677 -0.0023968797 -0.003291832 -0.0063740793 0.0024617233 -0.0012836386 -0.00021194929 0.0032745185 0.003705471 -0.005236311 0.004059752 -0.0050147576 0.0039345636 -0.0035965082 -0.0019553474 -0.00029086042 -0.005535751 0.0035526361 -0.002537687 0.0026081982 -0.00073026214 0.0041747577 -0.0035154885 0.003360271 0.0015194842 9.3847106e-05 -0.005526481 -0.00024705197 -0.0022936566 0.0033010067 0.004553098 0.0057684816 0.0010397073 -0.00017812474 -0.0053836396 -0.00434314 -0.0073641767 -0.0008684946 0.0051576714 -0.0016437726 0.00042876927 0.0025617813 0.002430268 0.0012512917 -0.00044257025 0.0021358996 0.0038709894 -0.0034430798 0.0007621895 -0.003182668 -0.0010575318 -0.00089779973 0.00012466576 0.0010198053 -0.0007486143 0.003000117 -0.0073092314 0.004523118 0.0048082373 0.00435043
families -0.0049715186 -0.0038759124 0.00094741955 -0.0012579049 0.0008490431 0.004493691 -0.0030790945 -0.0043134843 0.0011640618 -0.006873259 0.0006483407 0.0041010464 0.0011200337 -0.0048262533 -0.005047108 -0.00471073 0.0014331858 0.007418974 0.0024875216 -0.0038144155 0.003460579 0.0051758774 -0.0055146376 -0.002198513 0.0039622346 -0.009066457 0.0007978105 -0.00070812297 -0.0045714113 -0.00570396 -0.0017469649 0.005653289 0.0066767097 0.0013596194 0.0030171142 -0.005998026 6.3659936e-05 0.00019067773 -0.0035905945 0.005885806 0.0011007866 -0.0060529434 -0.006570642 -0.007114044 -0.0032475009 0.004156316 -0.0010856029 0.0022008976 0.0019997673 0.0052947556 -0.0019162147 0.003317343 -0.00016084439 -0.005050795 0.0017981364 -0.0035932555 0.0019805739 0.0028997024 0.0029173773 -0.00048423684 -0.0033958072 0.0030712378 0.0023305519 -0.0016886232 0.003924024 0.0028468561 -0.0035389164 0.0034851122 0.0030603711 0.01052585 -0.002132219 0.005589252 -0.005168102 -0.0039753653 -0.0045163357 0.0030114062 0.0018203091 -0.007924124 0.0036761304 0.002392544 -0.0051956573 -0.00015077449 -0.008010731 0.008177771 0.005412047 -0.004563558 0.0034213976 0.00300526 -0.0029657863 -0.0051955683 -0.008077522 0.0076418817 0.0017403561 -0.0022791598 -0.002119169 -0.007111172 -0.007931348 0.0035587277 0.0056183077 0.0031937668
war -0.00170979 -0.0024164366 0.004707886 0.0041918647 -0.0015270308 0.006151942 -0.0070783473 -0.0039330665 -0.004397399 -0.0010761049 0.00017860823 -0.0017789151 0.00026465897 -0.0072923605 -0.006698816 0.002473517 0.0041965786 0.008291598 -0.00092056184 -0.0056713996 0.0010108096 0.005048898 0.0011699074 -0.00060779165 -0.0011274135 -0.0082566645 -0.0023323698 0.002758282 -0.004099384 -0.00042805725 -0.0019877418 0.0017531544 -0.0012402176 0.000308541 0.00037225866 -0.007997972 -0.0001722496 0.0073340936 0.0036180725 0.005184699 0.004169405 -0.0004350715 -0.004208332 -0.006576508 -0.0024948572 0.0010726108 -0.0049674762 0.0029721195 -0.0041522053 -0.00043495907 0.0069502825 -0.005617407 0.005537756 -0.0067405743 -0.002080452 0.0038416767 -0.003089729 -0.00464472 -0.0051693544 -0.0021566742 -0.0056798644 0.003440567 -0.0014357954 0.0033667255 0.0013450492 0.003579258 -0.0016175959 0.005297549 -0.0021086035 0.0026782071 0.005466366 0.0032795006 -0.0019024891 0.0011001636 -0.0025773805 0.004696017 -0.005770108 -0.005707345 0.0032526192 -0.00635942 -0.0014249556 0.00022981815 -0.005117665 0.0044936608 2.5120811e-05 -0.004829278 0.00043113867 -0.00047157716 -0.0037263595 -0.0026170202 -0.004682715 0.006003926 0.0020354267 0.0032218017 0.0019437746 -0.004533053 -0.008495113 0.0042073647 -0.0025721209 0.0066080415
want -0.0035244913 -0.0011685049 -0.0032485558 0.0024363515 -0.00075103616 0.0063854945 -0.00401719 -0.0032666451 -0.005806759 -0.004124827 0.0025879256 -0.0027380195 0.0036810078 0.0019181601 -0.0056723524 -0.0047582057 -0.001528328 0.0058548828 -0.0007330922 0.0011501078 -0.004589055 -0.0013395622 -0.0045667184 0.0013003738 -0.0016489477 -0.0061613554 -0.0055199424 -0.0024525486 -0.0010504185 -0.0043695797 -0.004613047 0.00011538615 0.0056034513 -0.0053467946 -0.00077722344 -0.0061738426 -0.002553111 0.00018444243 0.0031705238 0.005188212 0.0060430043 -0.004910849 -0.0020697168 -0.0067764353 -0.005485127 -0.0060349773 -0.0039533135 0.002807859 -0.0027121298 -0.0005114013 0.0070839096 -0.0021292586 0.00383391 0.003218384 -0.0009941909 0.0024369336 -0.0008376482 0.002124285 -0.0018809487 0.004366277 -0.0024662497 0.0014603774 -0.0048945635 -0.00048579683 0.0042077354 0.0039104074 -0.0067942324 0.0035135238 -0.0043598935 0.0047896067 0.0012583272 0.00331026 0.002088245 0.002543022 -0.0048573785 -0.0014822474 -0.005013265 -0.003915051 0.0039560283 -0.0043075886 -8.569029e-05 0.0019791946 0.0024934018 0.008925797 0.004997507 -0.004279667 0.0048099444 -0.0016901153 0.0015322629 -0.004794818 -0.0055841682 0.0030886992 0.0022834495 0.0002871551 -0.004536667 -0.0066080135 -0.0076487106 0.0066110133 -0.0033524004 0.004085699
good -0.0032213056 0.0034904508 -0.0037035628 -4.4396857e-05 -0.0015932177 0.006301425 -0.0012392394 -0.0045717848 0.0001321121 -0.0055061285 0.0028864963 -0.00092255167 -0.0047304244 -0.00059727184 -0.006291362 0.0021854192 -0.003099838 0.004631489 -0.00034613642 1.1722264e-05 -0.0030689994 0.005342938 -0.003092146 -0.0043687806 0.005324366 -0.0052073547 -0.0028674765 -0.0016732072 0.0006449364 0.0038111026 -0.0012213271 0.0016037254 0.0025146524 -0.005183178 0.0036440387 -0.004667943 -0.004140198 0.00078112097 0.00518445 0.0047084815 0.0041687447 0.0035064446 -0.0026240756 -0.004265407 0.0040837787 -0.0011998807 -0.0024791886 -7.6401535e-05 0.0019005032 -0.0005212761 -0.002109509 -0.0043435516 -1.2024681e-05 -0.005673972 0.00018911719 0.0018584408 -0.004065277 0.0016491252 0.0010716462 -0.0033283602 -0.0015655012 0.0008416072 0.0026266186 0.0033802846 0.0010119737 0.0037958587 -0.0027610247 0.0007966671 -0.0044517396 0.0014160384 -0.0023177292 -0.0021678186 -0.0026387286 0.002489026 -0.0055101584 0.0035555123 -0.0030596212 -0.0031643123 -0.0025776983 -0.0015643407 -0.005105298 0.0034325188 0.0026320338 -0.0011204183 0.0014195164 0.0042559346 0.0037338748 0.0026908116 -0.0007432293 -0.0035419909 -0.0039664838 0.006500638 7.66164e-05 0.0034214042 0.00047518246 -0.0034277507 -0.006396073 0.0032452191 -0.0029754587 -0.0004114553
go 0.0027289502 -0.00036647357 0.0032867165 0.0025638423 0.003536624 0.004504441 0.0023770896 -0.0007535206 -0.0010305516 -0.0011750225 0.000117462645 0.0021417611 0.0049531297 -0.0064385575 -0.00024160134 0.0005154963 -0.0005102788 0.0037656564 -0.0011003235 0.0013960117 -0.00014153207 -0.0014056944 0.0024983163 0.0012124302 -0.0017956559 -0.0031183625 -0.003320349 -0.001978108 0.0022855443 0.0031102805 0.002630187 -0.00058762 -0.0012483548 0.0003264231 0.0020754156 -0.0032218434 0.004510128 0.0010360513 0.0043738615 0.006642385 0.0023570948 0.0005641654 -0.0013692637 -0.0013098104 0.0036781665 -0.0035834943 -0.0016433377 0.0037255539 0.0027733883 0.0032465472 0.004879233 -0.003050321 0.00013327318 -0.005396257 -0.004964086 -0.00071587844 -0.00288744 -0.00056247786 0.002889177 -0.0005878505 -0.00048969284 -0.0037497974 -0.00012857205 -0.0017760256 0.0046271905 0.00479557 -0.006305305 0.0049566706 0.0038217884 0.0073032477 3.5466735e-05 0.0038507774 0.0015943046 -0.0003614972 -0.0054783165 0.00040437104 -0.0049941763 -0.005516947 0.002357132 -0.0062381024 -0.0041395193 0.0029692827 -0.0024536748 -0.0013686977 0.003918756 -0.0041427016 -0.00041536312 -0.0016686933 0.00029126587 -0.004410264 -0.0025681846 0.0058022854 0.0040592174 -0.0035197688 0.001725959 -0.0020296713 -0.0011016135 -0.0011848906 0.0040485226 0.0019358688
car -0.0046891375 0.0050660707 -0.0002506976 0.0034887623 -0.0016000625 0.0004279115 0.00028340495 -0.0022404187 0.0026675875 0.0020551255 -0.001820477 -0.0029910961 0.0013080995 -0.0026878992 0.0013188345 -0.005680848 0.00032430518 -0.00069022115 -0.0026678555 -0.003448664 -0.004321374 0.0038218868 0.001046179 -0.0029708955 0.0046209907 -0.0029848933 -0.00091340765 0.0026559588 0.0008176932 3.714951e-05 -0.00043272035 0.0034545679 -0.0027724544 -0.0037824882 0.004204804 -0.0057342686 0.002586913 -0.00247737 0.0005561223 0.0042855097 0.002891132 -0.0042604012 -0.006078293 -0.003500051 -0.005305198 0.0007109014 -0.0062770606 -0.0002948094 -0.0023379812 0.0022904503 0.0026573893 -0.0011053651 0.0002676235 -0.0018247183 0.0041540023 0.0007832138 -0.0066809966 0.00016322905 0.002352979 0.0026749088 0.0022870363 -0.0041297586 -0.0033629623 0.0049706213 -0.003326213 0.0054693297 -0.0034805583 -0.0031029521 -0.0030679468 0.009162346 0.004382938 -0.00038160136 -0.0037359332 0.0004016097 -0.0008922006 -0.0038075794 -0.00028198722 -0.0001420419 -0.0013872891 -0.006393096 -0.001059549 0.003062027 0.00025457868 0.0039580436 0.0007825061 0.000729299 0.0029035823 0.0014347325 -0.00018084397 0.0016501327 -0.0006732931 0.003060159 0.0022520188 0.0047567477 -0.0038735336 -0.00044390134 -0.006175544 0.0047880653 0.0013653877 0.0012488654
say -0.003941142 -0.0041930242 0.0011059786 0.0028645443 -0.00547037 0.00072545244 -0.0044138846 0.0033783915 -0.006089979 -0.0030821555 -0.0047276337 -0.0040173247 -0.004346594 -0.0060376353 0.0031575765 -0.0042434614 -0.0035379857 0.005400536 0.0013114372 -0.0050297156 -0.002554095 0.0039355955 -0.005773513 0.00010589363 0.0029028456 -0.006554563 -0.003984067 0.0016319467 0.0028056817 -0.0044751014 0.0022518374 0.0028776412 -9.210899e-05 -0.00500731 -5.467908e-05 -0.0015788662 0.001014521 0.0043941364 -0.0030548188 -0.000564551 0.0012802397 -0.0044999258 -0.0037842966 -0.0010212822 0.003175078 -0.004116599 0.0026909087 0.0025669506 -0.0023099417 -0.0029716657 0.0060123657 -0.0030832074 0.006425481 -0.0029241568 -0.0033548526 0.001847939 -0.0018449283 -0.0032672058 -0.00045387106 0.0007242284 0.0037856547 0.0034252813 0.001477573 -0.00249383 0.0010685169 0.00054266356 0.0021304565 0.00083412096 -0.0017261496 0.0051523093 -0.002183233 0.003761845 0.003312366 0.003328475 -0.0003344583 -0.00029103694 -0.0073377704 -0.0016109848 0.003140017 -0.0040958994 -0.004960912 0.0006252924 -0.0021869603 0.004112952 -0.0033086075 0.0033614596 0.0008626844 0.00045405026 -0.0017467331 -0.003354189 0.002477272 0.0064168884 0.00482033 -0.004417278 0.001723926 -0.00027601875 0.0016828536 0.0018940885 -0.0034299279 0.004730366
attack -0.002825582 0.004992419 6.867156e-05 -0.0037213333 -0.0024194326 0.0051174113 0.0027219055 -0.006172013 -0.0042574354 -0.00068151345 -0.0040252903 0.0014203629 -0.0028085373 -0.0026139503 -0.00093608384 -0.0018007623 0.004918694 0.004438546 -0.0035448843 -0.002575252 0.0028363133 -0.0012439592 -0.004795785 -0.004473747 0.005910859 -0.0025124496 0.0011775823 0.0037143752 -6.64367e-05 0.0030741733 0.0016833297 0.005153703 -0.001512212 0.0046156826 -0.00027787985 -0.0036072799 -0.003919706 0.0029855447 -2.1372718e-05 0.0037374923 0.0013763024 0.0032983767 0.0035024644 -0.0050829896 0.0012431975 -0.002264987 -0.0032102647 -0.0013927205 0.0037077314 -0.004360562 0.0056696218 -0.0021953625 -0.0030325523 -0.0055250665 0.0012388892 0.004816398 -0.0018619422 -0.004844947 0.002406444 0.0052266233 -0.002903476 -0.00409428 0.0030551371 0.0037834898 0.00081950176 0.0027250922 -0.00490735 0.0004376574 -0.0014184688 0.0068338355 0.00081409514 -0.00095635914 0.0020647927 -0.0013905838 0.0034679729 -0.0018083657 0.0010713213 -0.00029829034 0.002713154 -0.0061275186 0.0039055333 -0.0038271218 -0.00576281 0.005398389 -0.0034376648 -0.0020472468 -0.0011765382 0.0014741693 -0.0035617466 -0.00071471144 -0.0019202094 0.0007797318 0.004056978 0.004727158 -0.0014551873 -0.0043482175 -0.004925912 0.0031149269 0.0033722469 -3.1575488e-05
train 0.0006594923 0.00030880398 -0.0030743617 -0.0045276866 -0.0017804528 -0.002481137 -0.0012354088 0.00044289016 3.9097147e-05 -0.00082954444 -0.004656167 0.0008709 0.0037191862 0.001379987 -0.0055829156 -0.0033847746 -0.0017347938 -8.6504864e-05 -0.0017695754 -0.0026285248 0.0016194873 0.0042696255 0.0034355691 -0.0043535205 0.0061458927 -0.006734442 -0.001209517 -0.00066514453 0.0026394208 -0.002517972 0.0034007984 0.001532516 -0.0024722947 -0.00064271013 0.0042123613 -0.0065200254 0.0020742433 0.0049093836 -0.0012197389 8.541986e-05 -0.00068684155 -0.0040106326 0.0037261255 -0.002601592 -0.004321355 -0.00492898 0.00040520285 0.0041778865 0.0045673745 0.00080370734 0.0046063866 -0.005206112 -0.0012695456 0.00269538 -0.00073937245 -0.002214427 -0.0017705912 0.0040563843 -0.0013938225 0.0047924477 0.0033138597 -0.0003050562 -0.002510563 -0.00374657 -0.0033920314 0.003551807 -0.0066342005 0.0013656472 0.00027218042 0.0050528985 0.004289004 0.0020685955 -0.0037489578 0.0005321429 0.0032361231 2.861722e-05 -0.0017088752 0.00014432317 -0.0023728244 -0.0019356797 -0.005103779 -0.0037076967 -0.00513295 0.0034448346 0.00058064074 -0.0023771632 -0.0012096989 -0.004781319 -0.004278973 0.00018169289 -0.003872533 0.0052752206 0.0030645104 0.00039126418 -0.0041829753 0.0014387305 -0.0013377267 0.00034149695 0.003356701 0.00332288
years -0.0047201216 -0.0014584815 0.0058283466 0.0029499885 -0.0041448814 0.0064508338 -0.00094007637 0.0018941074 0.0010168116 0.0005859768 -0.0005126693 0.0037247192 -6.4572414e-05 -0.008738257 0.00059922226 -0.005410156 -0.002458443 0.006024441 -0.0001659433 -0.0050454657 0.0001636498 0.004157393 0.0006068978 -0.0010791416 0.0025591238 -0.0017444699 -0.0054724985 0.0048514684 -0.0020204636 -0.0039459774 -0.0015187575 0.0044874894 0.001405846 -0.0030490945 0.0043060808 -0.009266292 -0.00059490296 0.0072110277 0.0058699436 0.009494091 0.007997522 0.0029893753 -0.0038909677 -0.0010200151 3.96671e-05 -0.00011108271 -0.0070875166 -0.0028344844 0.002236634 0.0026947772 0.00073525886 -0.0037230302 4.9926868e-05 0.0021113832 -0.0024192398 0.006306776 -0.004085381 0.0031669692 -0.004438411 0.0014345356 -0.0033261073 0.001884934 -0.00077815354 -0.0022891434 0.0017614011 0.008285371 -0.008607595 0.002760697 -0.0038123645 0.0025835792 -0.0032015373 0.006639999 -0.004297753 -0.0019378685 0.0013287235 -0.0016140732 -0.0027054152 -0.00660355 0.0003036365 -0.0021909939 -0.0047738613 4.859502e-05 -0.0049701864 0.0057144025 0.0034541632 0.0009437553 0.005852659 -0.0028722556 -4.982643e-05 -0.00091457675 0.00028528043 0.00063944206 0.002459241 0.0052298955 0.0022605471 -0.00070636504 -0.009228021 0.0020128957 -0.0020116463 0.0017851045
hiroshima -0.00074959855 -0.00018148431 0.0056660506 0.0011157934 -0.003318505 0.009842557 -0.0015006243 0.00049309916 0.0007570479 0.0025510986 -0.0029365704 0.0059147426 -0.00042366993 -0.00977165 -0.0049211527 -0.0034725342 -0.0010607643 0.0042271656 0.00058471726 -0.0016641475 -0.0017667516 0.0024620022 0.0003849064 -0.0037294466 0.0074111857 -0.0023910704 -0.008131103 0.00364419 -0.0054786853 -0.0022740369 -0.0031391967 0.0032766466 0.0057792673 -0.0049056197 0.00046491364 -0.007901191 -0.0037095493 0.0035557137 -0.0025968712 0.010533011 0.0067810845 0.00097585696 -0.0034678958 -0.0052424944 -0.004400404 0.0005669882 -0.008029709 0.0015426461 -0.0001470608 -0.0041765873 0.003935143 -0.0014126464 0.0025398163 -0.0006111212 0.00028249066 0.0042558834 0.00023624505 0.004126098 -0.007280987 -0.0040920214 0.0036764583 -0.0019881618 -0.0046030167 0.0025844942 -0.00011538861 0.0027085156 -0.008310563 0.0072574457 0.0027715152 0.012967224 0.006095891 0.002898674 -0.0017260641 -0.0066078627 0.0005092112 -0.0010001301 -0.008502138 -0.008763649 0.0026210567 -0.0087307235 0.00263568 -0.005273116 -0.0069750934 0.0047589694 0.007501885 -0.004753424 0.0029275287 -0.006528821 0.0006503471 -0.002594714 -0.0064942837 0.0058106505 0.0025730226 0.00030534752 0.0046613486 -0.0040044007 -0.009738742 0.003653083 0.0024591382 -0.0011726875
way 0.0010638556 -0.002726906 -0.0001496687 0.0027089887 0.0013355538 -0.0006783286 0.002206668 -0.0011191318 0.0018382974 0.00039734825 0.002826496 -0.0045073503 0.003095529 -0.0016803191 0.0029702196 -0.0050586495 -0.0036604768 0.0074816886 0.00034518182 0.0033754406 -0.004265705 0.0026925227 -0.002826224 -0.006166039 0.003336503 -0.003389493 -0.0006496552 0.0025994056 -0.0049751783 0.0011532395 0.0009059212 0.001888579 0.0049247933 0.003481884 -0.0021928584 -0.0076029915 0.0017068968 -0.0007774176 0.00022087886 0.004843328 0.0030736132 0.0006935924 0.0017244846 -0.0070967916 -0.005411785 -0.0021562409 0.00062345056 -0.0027088486 -0.0023460453 0.0031352325 -0.0012177648 -0.0012144906 0.00505639 0.0025799167 -0.0060665444 0.0028744212 -0.0023462945 0.0041998955 0.00063936313 6.0163882e-05 -0.0018285183 0.0021587298 0.0023850696 0.0023190978 -0.000989497 0.004260371 0.0011543225 0.00338682 -0.0016792454 0.009630878 0.0037492928 5.0826064e-05 -0.0037733915 0.00024375464 -0.001988522 -0.00065076404 -0.00049010117 -0.0042298613 0.0053286212 -0.0066904393 9.9732526e-05 -0.0011910915 -0.0027145718 0.007374076 0.0063973004 0.002195755 0.005762939 -0.0010616315 0.004420243 -0.0025898863 -0.006778282 0.0018551107 0.005068148 0.002460741 -0.0044452935 -0.0019209618 -0.006015436 0.0006192275 0.0038318601 0.003297007
life 0.004707886 0.00259814 -0.0019625889 0.0039858376 0.0009706846 0.0026096045 -0.0049947635 -0.003111939 -0.006274399 -0.0006276945 -0.0022491466 0.0014945806 0.0041284435 -0.0013755785 -0.003899961 -0.004849379 0.00581259 0.006674107 0.0020982982 -0.0051581776 -0.0049772323 -0.003360435 -0.004739969 -0.004221547 0.0050445194 -0.0015561369 -0.0046369103 0.0008315415 0.002090613 -0.004435457 -0.0035874397 -0.0038962518 0.0060172146 0.0006777064 -0.004907652 -0.005098468 -0.0016201823 -0.00017953265 0.0022240255 0.007050986 0.0026353318 -0.003187589 -0.0040864334 -0.006421725 -0.002017712 -0.004062346 -0.00018781671 -0.004134276 -0.0010538754 -0.0013061629 0.002468022 -0.0017715896 0.00043701875 -0.0020967475 -0.0006839937 -0.002598589 -0.0048931804 0.0038455778 0.001857212 8.067419e-05 -0.0013486852 -0.0036119015 0.0031494002 0.002021841 0.0037247431 0.0035321943 0.0028066908 0.0046217353 -0.0017761688 0.008321016 0.0015408407 0.004632892 -0.0024140442 -0.0048742592 0.0014264772 -0.0016415379 0.0022676166 0.0019042942 0.0031279724 -0.006080934 0.0018579762 -0.0012046989 -0.0059624896 0.003333041 0.0004724973 0.0029243685 -0.0026777498 0.0025476583 -0.0027022206 0.0012467419 -0.005402827 0.001026307 -0.0021518192 -0.0016004051 0.0036180746 -0.0064988793 -0.0038251986 0.0011964444 0.0033023988 -0.0008020316
look 0.0008073995 -0.003590253 0.0017515188 -0.0015447574 -0.002329593 0.0021359574 -0.0023620508 -0.0056406143 -0.004666716 0.00057898764 0.002976349 0.0010533241 -0.0005384532 -0.001660086 -0.0056579732 -0.0049759 -0.0008831338 0.002774544 0.002514921 -0.0009888925 0.0034060196 -0.0033728585 -0.006353454 -0.002815869 0.0040938584 -0.0009931158 -0.0042838464 0.00058660505 0.003959234 -0.0042456402 0.0021609352 0.0029194183 -0.0014174756 -0.002013097 0.0033879129 -0.0031452752 0.001669368 0.0017118423 0.0048381095 0.0052633 0.0050075846 0.0039624767 -0.005304972 -0.004571506 -0.0006098982 -0.00038611164 -0.008289226 -0.00054352893 0.0031120332 0.00079301116 -0.0011303466 -8.2579725e-05 0.0054029403 0.0029013914 -0.0050882963 0.0050337734 -0.004925975 -0.0032258127 -0.0061999517 -0.003847764 -0.0040965127 -0.0012404359 -0.0051445323 0.0051956545 -0.0005922634 0.0041823667 -0.0060947035 0.0012701619 0.004404008 0.009153619 0.0006093988 0.003964324 0.0039638323 -0.005901542 -0.002224833 -0.0002695361 -0.00817939 -0.0017322777 -0.0019600422 -0.0005950716 -0.0029795086 2.224519e-05 -0.0051979204 0.0066116266 0.00020845358 0.0033660769 -0.0004146756 -0.003747399 0.0008376933 0.0022508153 -0.00019502574 0.0018780205 0.004741551 0.0005480608 0.0041752043 0.0013741542 -0.0051412084 -0.0019328579 0.00073226227 -0.0010301643
death 0.0024508338 0.0010315711 0.0048184968 -0.0015363025 0.003927021 0.0023218917 -0.0024579319 0.00017490664 -0.0060742185 -0.0023903968 0.004001228 -0.0016612705 0.004894411 -0.0075233867 -0.0045347926 -0.0041691656 -0.0012341674 0.0069451495 0.0040646326 -0.003954776 -0.002992684 -0.0009480531 0.0019955793 0.0011415405 -0.0005063267 -0.0038822794 -0.006199458 0.0040024207 -0.00051348517 -0.0053894627 0.003318702 0.003307858 0.0010876023 0.003303693 0.0041214544 -0.0038581046 0.0008562313 0.0053187897 -0.0031115534 0.0066906284 0.004847676 -0.004145151 0.0004103259 -0.0059624896 -0.004423791 -0.0044289744 -0.0010778793 0.00172291 -0.0019816456 0.00097032276 0.00081782305 0.0036447365 0.0046868213 0.001087172 -0.0019973463 -0.0023674518 -0.0049310327 -0.0024447718 -0.005535212 0.0052411486 -0.0023058772 0.0016074822 -0.002294325 0.00018500263 0.0039659613 0.0016998688 -0.0016859951 0.0019199607 0.0026099787 0.00052349654 -0.001057437 0.0028251314 -0.004403598 -0.0056506866 -0.0043574525 0.0017670573 -0.0038937174 -0.0052578934 0.004604782 -0.0030152663 0.0030277611 6.113078e-05 -0.0053594722 -0.00011873327 0.002970034 0.002064739 0.0043631606 0.002047135 0.0028670651 0.0029584796 -0.005699875 -0.0019605206 0.0048341746 -0.0037814698 -0.0013747441 0.0018982862 -0.0023989938 0.0021950994 -0.0006858607 0.0058014016
many 0.00058397866 -0.0005465098 0.00374122 0.0024959818 0.0035077503 0.0005454673 -0.004630139 0.0011507182 -0.0015660132 -0.0016093175 -0.0033848097 0.0030805946 -0.0015623709 0.00043815095 0.0027800412 0.0011497182 0.005814531 0.0027895372 -0.0005283517 0.0017232411 -0.0051663527 0.0037496097 0.002641323 -0.0033755626 0.007293598 -0.005885199 -0.0024578238 0.0046314304 -0.0044679055 0.004098964 -0.0013070315 -0.0009408003 0.0029134762 -0.0056072418 0.0019325278 -0.006330938 0.00044900307 0.0013925601 0.0049073286 0.0013127575 -0.0003700808 0.00019667603 -0.006133256 -0.0022948487 0.001500958 -0.0020683664 -0.0009720502 0.0006544144 -0.0038962194 -0.0006477223 0.0021851084 0.0001581632 0.0038167739 -0.00425173 0.0017421399 0.0014604146 0.0019596675 -0.0010807316 4.7455847e-05 0.0019491763 -0.004674401 -0.0033614645 -0.00161619 0.004808517 0.0044016154 0.0014008388 -0.004744884 -6.650055e-05 -0.0035857589 0.010371802 -0.0015873027 -0.0010809683 0.00011051759 -0.0061841 0.0015009083 -0.0010632406 -0.0001105162 -0.00071891194 0.0034348103 -0.005600983 -0.0064596147 -0.0021430016 0.00069724984 0.009006717 0.0030254116 -0.0026960126 0.0021361033 -0.0021534553 -0.0049083745 0.002944624 -0.006156356 0.005580817 -0.0024763036 -0.0019191551 0.0020052523 -0.0053631994 -0.005602916 0.0015089313 0.004726779 -0.0024858774
let -0.00427412 -0.003027776 -0.00017632701 -0.0040095164 -0.00469947 0.001177646 0.0020653955 0.0013284987 -0.0065879356 -0.0046389983 -0.0009413763 -0.0021887224 0.0013332751 -0.0047344803 -0.0041404385 0.002074094 0.0013330367 0.0034617016 0.0035554792 -0.0023468058 0.0041626655 0.0057838564 0.0006604747 0.0029246313 0.0043562395 -0.0011080117 -0.0037971884 -0.0006179048 0.002410838 -0.00077311357 -0.0015146502 0.0013395009 0.0013673956 0.0036064894 -0.0048423796 -0.0029134331 0.004207606 0.0047437865 -0.001980471 0.0022702902 0.0019858088 -0.0044523845 -0.0034926797 -0.0037415046 0.00305857 0.002343717 -0.00094481825 -0.0015137413 0.0021977036 0.0021901738 0.005909711 -0.0022997835 -9.225534e-05 -0.001256169 -0.005409284 -0.0021019895 -0.0039171637 -0.0006627977 0.0005956469 -0.0035315498 0.0012216766 -0.0032054351 -0.0028995334 0.0040896893 0.0017914738 -0.00036551178 -0.0013048564 -0.0009489784 0.0016203504 0.0046625477 0.0045754774 0.0029207035 0.00071744464 -0.0051048067 -6.349652e-05 -0.0025992424 -0.0068016597 0.0009807878 0.00010327973 -0.0028418924 -0.00028053665 -0.0026764807 0.0009911604 0.006943789 0.0021023299 0.004154409 0.006956374 -0.0015574491 0.001128895 0.0025601573 -0.0027367533 0.005276764 0.004792569 -0.004685112 -0.002300226 -0.0063367574 1.0326816e-05 0.0043337513 0.0043699597 0.004716775
mass 0.00023129467 0.002819699 0.0056385836 -0.002495493 -0.0047630477 -1.1555347e-05 -0.002056693 0.0032665331 -0.006124563 -0.0010236036 -0.0018766487 0.005064567 -0.002445085 -0.0029309655 0.0013675428 0.0018257177 0.005711531 0.0039379704 0.004887766 0.00042793647 0.0007006764 -0.0018825044 0.0010997317 -0.0030507776 -0.0029677153 -0.004219991 -0.0036821426 0.002290035 0.0025445675 -0.0038454991 -0.002839884 -0.0042793257 0.0018551067 0.004434567 -0.0014946993 0.0009337265 0.001643696 -0.00088295754 0.0024042975 0.004900605 -0.0027272468 0.0030715829 0.002188463 -0.0028476336 0.0002768264 -0.00047126994 -0.0020714188 -0.0038777299 -0.0005337205 -0.002806067 0.00245439 0.0011579272 -0.002243534 -0.0037178071 -0.0015761077 -0.0026854428 0.0010238332 -0.0029930286 -0.005364742 -0.0009804881 -0.0026167932 0.0020972171 -0.002562181 0.00016444529 0.0050675785 -0.0008626328 0.0017938035 0.0021586143 -0.0023961423 0.007378846 0.0024593447 0.0025940528 -0.0032790052 0.001016163 0.0013336474 0.004866222 -0.00083440274 -0.0031488216 -0.0003770324 -0.0029804846 -0.005074731 -0.0012207167 -0.0011235179 0.0075617577 -0.0028027208 0.0006440556 -0.0019137159 -0.0016422397 -0.0023198964 -0.0010220788 -0.0006773059 0.004857539 0.0036341888 -0.0042110784 -0.0030930603 0.0011746059 -0.0064025954 0.0048186034 -0.00043216805 0.0021905478
best -0.0017890696 -0.0005638779 0.0005007877 -0.002589608 0.0028993937 0.0019721705 0.001191728 0.0013702423 -0.0011714868 -0.002563099 0.004448424 -0.004194557 0.0032404687 -0.005113587 -0.0029034733 0.00031983067 0.000117243995 0.0077765896 0.0023183825 0.0013707455 0.002600284 0.001443156 -0.0030544586 -0.0066090226 0.0002768736 -0.0027458156 -0.006144433 -0.0020195819 -0.00140502 0.0025898726 -0.00092663895 0.0022273103 0.002083009 -0.0028936926 0.003577472 -0.006348713 0.0027977694 0.00066122116 -0.00041334744 0.007373389 0.00488194 0.0038632716 -0.001542029 -0.006556411 -0.002891394 0.0010005787 -0.006205638 -0.0030805578 4.4379904e-05 -0.0021883436 0.0042833206 -0.0042694137 0.00053155265 -0.0028122538 -0.005686677 0.0011737233 -0.00085248385 0.00027374734 -0.0025062088 0.0043518357 -0.0040922803 0.0017851877 -0.0041657053 0.0027155762 -0.0015292523 0.001373523 -0.0048173713 -0.002263383 0.001197542 0.0039050598 -0.0026940524 -0.0015089236 -0.0003798413 0.0029773598 -0.005071942 0.0048227524 -0.0076356535 -0.007128879 0.0037612005 -0.0031080234 0.00079169933 0.0016169987 -0.0016674782 0.0028785174 0.003199999 0.0038893856 0.0032794648 0.00026644956 0.0010505213 0.00345097 -0.00021799028 0.005366671 0.003064051 -0.00016432645 0.0045127617 0.00044306758 -0.006329423 0.0056193564 -0.0035120645 0.0030055542
last 0.0026854044 -0.002302972 0.0049261563 -0.0013111063 -0.00056321395 0.0057720873 -0.0015442439 -0.004923332 -0.0020203136 0.0012087834 -0.0056417915 -0.003381816 0.0028883747 0.0017582991 -0.006446258 -0.0017581678 -0.0012337236 0.007766806 0.0013719291 -0.0020585738 0.0047964766 -0.00065053074 0.0021002197 -0.004799616 0.00014557678 -0.0064468486 -0.0065746326 0.0037829806 -0.0017405649 -0.0013667401 -0.0020423522 -0.0043192706 0.0006255959 -0.00044920706 0.0041732695 0.00033813532 -0.0043624784 -0.0006387032 0.0006930917 0.0069886697 0.0043803337 0.004299408 -0.0024997601 -0.006099092 -0.0015443543 -0.0033378738 0.0013183231 -0.003910879 -0.0035579281 0.0012999518 0.0038134705 -0.0012364951 0.006350649 0.00089538353 -0.0020165541 0.0042650737 -0.0044302023 -0.0013822264 0.0002043479 0.0050103306 0.002802956 0.0028304418 -0.003542557 0.0039960076 0.00024809275 0.007086674 -0.0035475362 0.0063248975 -0.0030020992 0.0060766865 -0.0024708046 0.002593483 -0.001097107 -0.0008189444 0.0008976875 0.004187451 -0.005679604 0.0023792505 0.0010047274 -0.007348365 0.0014440472 -0.0038558268 0.0015080046 0.0021562006 -0.0031809404 0.00012725138 0.004929407 -0.00080529344 -0.0017626082 -0.004382385 -0.00038735307 0.0034329977 0.0026715687 -0.0029581604 -0.0038060208 -0.0011696649 -0.0038807539 0.0020821772 0.0055378554 -0.0013770057
wildfire -0.0018208371 -0.004031885 0.0029928095 0.0052442453 -0.0047011045 0.007499424 0.002641717 0.0025984421 -0.000451178 -0.0061246715 0.0010581494 0.0013626156 0.0033979567 -0.0077557513 -0.005605751 -0.0034164176 -0.00040224032 0.0061402447 0.005156779 0.00054494746 -0.0007302206 0.0030823238 0.00096715346 -0.006807715 -0.0008866383 -0.006018951 -0.0014628505 -0.0027026625 0.003091283 -0.005834523 -0.0006954006 -0.0021676586 -0.0014923195 -0.005563389 -0.002046658 -0.004329843 -0.0026789666 -0.0014400285 0.005425028 0.0038602292 0.0063918987 -0.0026693067 -0.0004970983 -0.0035627217 -0.0044616857 0.001992593 -0.006486728 -0.002598781 -0.0023131263 -0.004472277 0.0039316285 -0.0050871116 0.0048823287 0.0012084359 -0.00079476123 0.0033756052 -0.00025857665 0.0030921465 0.0030397847 0.0061439928 -0.0011105352 -0.0006354129 -0.005201855 0.0019971796 -0.0011401513 -0.0004219772 -0.0056621325 0.0045179706 0.004231567 0.0074740336 0.0053398097 -0.0026293972 0.00045483268 0.0007195899 0.0009714261 -0.002537454 -0.00244162 0.00157853 0.004345163 -0.0061127744 0.0029851147 -0.003452558 0.0021857827 0.002990712 0.0059872027 -0.004186489 0.0005371254 0.0008260163 0.0020848082 0.0012619507 -0.000710653 0.004872685 -0.0011986227 -0.00041973914 0.0032250623 -0.0012694566 0.0014563064 -0.0019931674 0.0013886011 0.00591717
work 0.00072246126 0.00083624397 0.0014805541 0.004432549 -0.0048546945 0.00039995927 0.0008479143 -0.000937717 -0.0040362105 0.00032993755 0.0009027841 0.0026119116 0.0010222655 -0.008215885 -0.004158317 -0.0046166317 0.0033808837 0.0073673218 0.0043117655 -0.0060527753 -0.004169225 0.0047212616 -0.0019416668 0.0020016567 0.0019530137 -0.00030223094 0.002053813 0.002267442 0.0033615918 -0.00041241563 -5.52164e-05 0.0051070172 0.0058309347 0.0043886434 -0.0027240568 -0.0052863 -0.00025844862 0.0043771747 0.0012750516 0.009294107 -0.00029553738 -0.0021421788 0.0022053998 -0.0039409366 -0.00085633656 -0.0015925885 -0.00019908661 -0.0034328604 0.0054002283 -0.00070171454 0.008246161 0.001934807 0.0051123714 -0.004410258 0.0012392934 -0.002250535 -0.0021937094 0.0044942657 -0.0064701736 0.0045712925 0.0014054267 0.005845697 -0.0002167164 0.00454597 0.0056581083 0.007478264 -0.0025889105 0.0031843768 0.005201722 0.012186471 -0.0028803446 0.0020000702 0.0014185621 -0.005400328 -0.0028680658 0.001521979 -0.00017232986 -0.0074052005 0.0030775964 -0.0026442634 0.0010151898 -0.00063594437 0.0010396538 0.0029070273 0.0056159208 -0.0054995385 0.0021334672 -0.0033756543 -0.0046381135 -0.0030751606 -0.0026697638 0.0064398125 0.0048497315 -0.0028201435 -0.0037654173 0.0009315024 -0.004705261 -0.0011760799 -0.0028292825 0.003983929
take -0.0034771394 0.0005129933 -0.003502047 -0.0015117145 0.002409038 -0.002368264 0.0008890159 0.0013230615 -0.0036740948 0.0010308403 -0.0017057154 -0.00075637165 -0.0002927717 -0.0041049644 0.0011094064 8.8075467e-07 0.004935762 0.0006126185 0.0018772894 -0.0021429206 0.0031000755 0.002573822 -0.003956236 0.0017027295 -0.002886412 -0.0048475363 -0.004480704 -0.0016273301 -0.0005357335 -0.0044149156 -0.004801083 -0.004503993 0.006749007 -0.0008094277 -0.0016498131 -0.0024336628 0.002761128 0.00069286645 0.0031441124 0.0045966385 -0.0028611196 0.001134019 -0.001796067 -0.0039767157 -0.0032489551 0.0013403095 0.0006389287 -0.0017524661 -0.0002732999 0.003594136 0.005371755 -0.0036233577 0.0023722183 -0.0043638037 -0.0031336518 0.0056057246 -0.003657978 0.00079571985 0.00229343 -0.0038845476 -0.00075131725 -0.0011067358 -0.0005616998 0.0007628221 0.0025261717 0.0057641855 0.00028693094 0.0066159796 -0.00081388716 0.007618061 0.0005648122 0.0060230326 -0.0013876355 -0.004372857 -0.003606101 -0.0012760632 -0.0040885815 -0.00017733475 -0.0018650636 0.0017239657 -0.00035837677 0.00041823342 -0.0012834917 0.007156571 -0.0021355404 -0.0026523282 0.0034368113 -0.0016180908 -0.001372779 0.0036269026 -0.00380326 -0.0017683397 0.0043935366 -0.0037741186 -0.0046925824 -0.0042785453 -0.004313512 -0.001370044 -0.000383667 0.005347452
make 9.329018e-05 -0.00048467633 -0.0030100434 0.0040518516 -0.0031470375 0.0033600705 -0.0043482766 -0.0034126441 -0.006399 -0.0059282403 0.002466077 -0.0038539749 0.0012766841 -0.000971988 0.0007858898 -0.006544094 0.0024861265 0.00748652 0.0024055992 0.0010513961 -0.0020127129 -0.002546674 -0.0022391605 -0.005032365 -0.0015654106 -0.0041253483 -0.002980676 0.002581627 -0.000801563 -0.0052904096 -0.0023985032 0.0018363983 0.004931544 0.0015149614 -0.0031709522 0.0005035039 0.003363084 0.004893308 0.0024990928 0.0020023822 -0.0015286759 -0.0003131274 -0.006025842 -0.00449865 -0.0045408923 -0.0049580038 -0.0041003586 0.004863987 0.00082610117 0.0015595676 0.0052125896 -0.0055445097 0.0026532235 0.0031475483 -0.00059754367 0.003918261 -0.0006674154 -0.005244202 0.0010365882 -0.0026799736 0.0035584152 -0.003030887 -6.61977e-05 0.0053309803 0.005527419 0.0065106945 0.0012886444 0.003455383 -0.0023876075 0.0055902028 0.0047932616 0.005524221 0.001395433 0.0015247001 -0.0056250948 0.004136344 0.0005160556 0.0018242777 0.0039414894 0.0007007418 -0.0045767096 -0.0037276952 0.0014145597 0.008427302 -0.0025313208 0.0027382055 -0.0027791047 -0.0030708238 0.0012559872 0.0008849193 -0.00560806 0.004212269 9.7435535e-05 -0.0041364236 0.0013939954 -0.005276179 -0.006336511 0.0049343123 -0.0042972066 -0.0010463794
collapse 0.0008265325 -0.0011597384 0.001814177 0.0032068572 -0.0036629806 0.0035237966 -0.004878546 0.0018829715 0.00081829634 0.0041015525 -0.0050988276 -0.0028955096 0.0024856746 0.0039805644 0.0005972849 0.0011531239 -0.0017681778 -0.0004581638 -0.0041871015 0.0016227262 0.0025263156 0.0012325175 -0.0003081993 -0.0009932604 -0.0031341382 0.0038772412 -0.0044979593 0.0044351825 0.00074874546 -0.0040865247 -0.0023490223 0.002433224 0.005774461 -0.004769467 0.0008933262 0.00036281822 -0.004750204 0.004961432 0.0003228458 0.0006592576 0.0049359063 0.001005061 -0.00047691754 -0.003050165 -0.00074420084 -0.0009521206 0.0010463017 0.0043358444 0.00025499903 -0.0029716375 -0.00044800487 -0.00040425136 0.0014719755 -1.8597351e-05 0.0036028135 0.0024661678 -0.00063683325 -0.0018637476 -0.0008291479 -0.000567381 -0.0047066608 -0.00056262774 -0.003709846 0.0014140265 0.0035378009 -0.0017562695 -0.0032682843 0.002178007 0.00191624 0.0030100706 -0.0012121021 -0.0040730312 -0.0035808187 -0.0004294389 -0.0006011909 -0.00047420958 0.00021046192 -0.0010381601 -0.004471502 0.00287517 0.0018992303 0.0039065955 -0.0042495443 -0.0018251477 -0.0038506775 -0.0023593737 -0.0011680502 -0.004201009 -0.0035350455 0.004007311 -0.0007980626 -0.0023378904 -0.0018718672 -0.003561785 -0.0021007848 -0.0021907678 -0.0021846446 0.0035296557 0.0003661008 -0.0043236846
black -0.0021239002 -0.00090212876 -0.0014736502 -0.0020239314 -0.0013971204 0.0027700742 -0.0022678992 0.0019421007 -0.0034580026 -0.0017009104 -0.0039520543 0.0029619471 0.0019482538 -0.006512736 0.00282011 -0.002298247 0.0010877816 0.0046165036 -0.0029008416 -0.0018790188 0.0045492477 -0.00023340492 -0.0009750915 -0.0054560993 0.0013872132 -0.0066892286 -0.004017143 0.0024861426 0.0027722942 -0.0045206863 0.0016188569 -0.0035615289 -0.0022548758 -0.0035574622 -0.0021944104 -0.002984869 -0.001207839 0.0014016747 -0.00011560856 0.007850092 4.654092e-06 -0.0053579565 -0.003898552 -0.0036406645 -0.0049504275 -0.004788168 -0.006576444 -0.002238322 -0.00285567 -0.0051633217 0.0011392774 0.0004955396 0.0059882784 -0.0039728717 -0.002383673 0.0047377218 -0.0060259793 0.00024916022 -3.075328e-05 0.0036726047 0.0030007157 -0.002947706 0.0004999582 0.004625074 6.9956004e-05 0.0054184785 -0.00020467491 0.0004204518 0.0027925184 0.007284705 0.004870367 0.0048537403 0.0036401537 -0.0029735842 0.0037249352 -0.001642926 -0.008149606 -0.0025906956 0.0028487174 -0.004202113 -0.004134095 -0.0021735628 -0.0037722865 0.0076776156 0.0033167263 -0.003297704 0.0040513016 0.0039706086 -0.0031142829 -0.0016771755 -0.0026489233 -0.0020695957 0.003012073 -0.003908219 0.004005607 -0.0013441952 -0.0060781497 0.0054717036 0.003914617 0.0028740887
help 0.0019252634 0.004739129 0.0005616944 -0.0024912911 0.003752371 -0.002436456 -0.005299731 -0.006475539 -0.0014226581 0.0026710923 0.0009862275 -0.0009511227 0.005251348 -0.004815138 -0.005086082 -0.00078045216 -0.00051165576 0.00057832565 0.003667734 0.00077779434 -0.0035029554 -5.9640308e-05 -0.0038833327 0.0016178202 -0.00037811557 0.000984041 0.0028463162 0.00015450807 -0.0026146085 -0.004766663 0.0037241166 0.0008954041 0.005240773 0.0023192712 -0.0045040455 0.0019272389 -0.004162435 -0.0007331678 0.0024159646 0.0016432985 0.0033355947 0.00414823 -0.006013283 -0.0050666216 0.0007125414 0.0006879466 -0.0069606286 0.0024674241 0.004989299 -0.00016470464 0.005622543 -0.003896935 0.004749081 0.00031442204 -3.084086e-05 0.003460504 -0.0011756314 -0.0045192167 0.00043054204 -0.0042925687 -0.0024324402 0.004418941 -0.0018228169 0.004904058 -0.0003279114 0.0058703357 -0.0020120856 0.005797261 -0.0043018903 0.0038966823 0.0055395807 0.0008561203 0.0007640026 -0.0018122249 -0.0049737166 -0.003988257 -0.0009642445 0.0017399485 -0.00023129048 -0.0030681803 0.0020333666 -0.004318731 -0.00045893132 0.0027971296 -0.0031944423 -0.0037248933 0.00058284926 -0.0006537341 -6.256015e-05 0.0043485593 0.0015168926 0.0058743632 0.005677485 0.0018129906 -0.0009821078 -0.0052551543 -0.0045005265 0.0022914158 -0.004176861 -0.0009261681
much 0.0042783613 -0.0037128385 -0.0011457356 0.0011305594 -0.0021021964 -0.0015816997 0.0010952355 -0.004656313 -0.0048895036 0.0015618016 -0.005361106 0.0050003957 -0.0027411503 -0.0012965809 0.0012209517 0.0015447907 0.0015156759 0.0011404083 0.005863192 -0.001698383 -0.0008554241 -0.0042127734 -0.0051167216 -0.0024412568 0.002950863 -0.00089465483 0.0030331807 0.0035112451 7.391711e-05 -0.0053795283 -0.004057715 -0.0024397338 0.0013358172 0.004030592 -0.0047277114 -0.0071632676 0.003306288 -3.1110136e-05 -0.0005576788 0.0054569305 0.0051301797 0.00021774952 -0.004938798 0.0011144086 -0.00038900413 0.0020959794 -0.005656215 -0.0015271889 0.00216059 0.00464821 -0.0014034112 0.0003335889 0.00030964342 -0.006377157 -0.0011831053 0.0046321303 -3.7734962e-06 -0.0017102107 -0.0027241958 0.0012663222 0.0020191418 0.0003642357 0.0009636702 0.0037982925 0.0033920354 0.003826793 -0.00075400044 0.0009891615 -0.0037399475 0.009052118 0.0057587293 -0.0016513872 -0.0014053839 0.0008864134 0.0025790394 -0.0031372476 -0.006721582 7.992523e-05 0.0037289588 -0.004665494 -0.0023992981 -0.0006153441 -0.005298274 0.0028539142 0.0009966735 0.0013963294 0.0029278467 0.003613336 0.0009590149 -0.0031528426 -4.4664986e-05 0.005961889 0.00041070953 0.0048077046 -0.00013774088 -0.0049341097 -0.0071089156 0.005885229 0.00081529777 0.004069423
army 0.0036781367 0.0049454626 0.004133401 0.0049059927 0.0040339576 0.0032570187 -0.00021412538 0.0007033419 0.0026388613 -0.003744929 0.0038747403 0.0005185503 0.004748439 -0.008054864 -0.0033894556 -0.0032180755 -0.0012996942 0.008010045 0.004040647 -3.405328e-05 0.0023431254 6.0412633e-05 0.0019410022 -0.0069153174 0.0050826813 -0.0058392324 -0.001348459 -2.9465771e-05 0.003651481 -0.0024290562 0.0026608568 0.0004895666 0.004987343 -0.00018883421 -0.00035197302 -0.0031916187 -0.0030724127 0.0031196256 0.003122991 0.0076946 -0.0024548906 0.0023355342 -0.0025634607 -0.0036555147 -0.005091333 -0.0044635655 -0.00044176422 0.001323346 -0.0014571882 0.003326832 0.005904158 -0.0028059492 0.0040490394 -0.0022359814 -0.0020084393 7.609006e-05 -0.00436843 0.0034408213 0.002505134 0.0042508286 0.0028657194 0.0047912397 0.0031528214 0.0041988865 0.0052929805 -0.0011574865 -0.003531032 -0.00014030637 0.0019408205 0.009878386 -7.2577255e-05 0.00033292186 0.0022858183 -0.0005196206 -0.0031338588 0.0030203261 0.00033888454 -0.0021495651 -0.0028913263 -0.00068492396 0.0006405925 -0.0021534946 0.00079451257 0.0077297497 0.0059426515 0.0036128503 0.0033106992 -0.0053398707 -0.005296375 -0.0003913475 0.0002713077 -0.0022838071 0.0038741806 -0.0007195863 0.0028339762 -0.0026374615 -0.004379305 0.0013634089 0.0028617834 0.0030458958
right -0.00066503946 0.002471583 0.004842103 -0.0041543674 -0.005151283 0.0002393372 0.0027230803 0.0009000942 -0.0031466994 0.0005611179 0.0006428214 -0.0032246897 0.003295645 -0.0042775446 7.59918e-05 0.0012564474 0.0036073436 0.0003499353 0.0026211194 -0.0008184267 -0.0023083242 0.0013295171 0.0034359496 0.0019616687 0.0059345937 -0.0012430345 -0.0018590649 0.0045949216 -0.0018833275 -0.003890631 0.003648327 0.00472026 0.004053995 0.003989949 0.0017717273 -0.0076598846 0.004932623 0.0049396735 -0.0041740234 0.0045003793 -0.0002665321 0.00022887932 0.0030221906 -0.002727318 0.00046116931 -0.0022421086 -0.005099348 -0.003273511 -0.00436358 0.004382285 -0.0014044368 -0.003986559 -0.0019066688 0.0022280838 0.0010443451 -0.0030702795 -0.0015657443 -0.0027013745 -0.0044321367 0.005458913 0.002786677 0.0011740398 0.0010179835 0.0034470065 0.0046293326 0.0038422681 -0.0029141216 0.005132418 -0.0027891162 0.00348145 -0.0028722351 0.005942302 0.0007231203 -0.002087392 0.002122106 0.0027810847 -0.0037450648 -0.0019362491 -0.0033309567 -0.0018233097 -0.00012311166 -0.0013399064 7.8316916e-05 0.008163197 0.0022826544 -0.0024898008 2.2813252e-05 0.0019981524 -0.004078776 -0.00029335308 0.0011373148 -0.0025832283 0.0019791601 -0.0013945544 -0.0029803694 -0.0018271833 0.0013290457 0.0032408694 -8.581518e-05 -0.0007037449
really 0.003014991 -0.003456293 0.0041258615 0.0026688934 -0.004526969 0.0020163418 0.0007311163 0.003061279 0.0018409741 0.003894923 0.0011337763 -0.001312487 -0.0045063486 0.00075837417 -0.005263273 0.0012598344 0.0037879238 0.0006820462 -0.0037639695 -0.0036106987 0.00246081 -0.0007768396 0.001256299 -0.004401763 0.00037758733 -0.005346888 -0.0013514411 -0.0016334483 0.00087079924 -0.001339293 0.004602408 -0.0031114616 0.003840344 1.8739081e-05 0.00028687104 0.000556623 -0.000836263 0.002244254 0.00013073198 0.005197079 -0.00019761735 -0.0035814433 0.0029621543 0.0015832954 0.0016879552 0.0031606702 -1.6505786e-05 -0.002902374 -0.002064467 0.0033972976 0.0034355812 -0.0012455849 0.00547598 0.0010686428 -0.0004567277 -0.0004257011 -0.0063244933 0.003697181 -0.004758418 -0.002000128 0.00040383165 0.0038939374 -0.0021853377 0.0023934145 0.0040028226 -0.002014339 0.0027040548 -0.0031601759 -0.0040156962 0.00717497 0.0026154784 1.0636395e-05 0.0020159949 -0.004875116 -0.0042679594 -0.0039111283 -0.0017587256 0.00011933068 0.0037285988 -0.0014306821 -0.0052851904 0.00067056465 -0.004088104 0.0064302925 0.0035860648 -0.0011144055 0.0014268686 -0.0031556012 -0.0011563557 -0.0049135885 0.0036343043 0.0056833024 0.003617426 0.0016292813 0.0030317488 -0.0041694986 0.0020670253 0.0014891184 0.0027079312 -0.0003526634
reddit -0.0010837779 0.0007539474 0.00087506487 -0.002424616 -0.0012383054 -0.0010332121 0.00085544 -0.0065999515 0.0018973319 -0.00084831804 -0.0021529142 0.0040328847 -0.0025180662 -0.006206805 0.002715901 -0.0004173286 0.0055512534 0.00016606957 0.0013527028 0.0023446619 -0.0034435708 0.006198998 -0.00021919973 -0.0023011025 0.003673927 -0.0067535546 -0.0047147395 -0.0010007228 -0.0025854849 0.0021884975 0.0036274143 -0.0040754853 0.0037469945 -0.0040877187 -0.0011533453 -0.0055350387 -0.0031206864 0.004498437 0.00084469037 0.0028437146 0.004281684 -0.005673084 -0.0016797957 0.001514554 -0.0018599372 -0.007296113 -0.0056357495 -0.001372435 -0.0029479784 -0.0010557454 0.0032233526 -0.0024130712 0.004423529 -0.004841578 -0.0026668708 0.006755721 -0.008502505 0.002582498 -0.005811816 0.0029563678 -0.0010560178 -0.00046601726 0.0021605794 -2.2682161e-05 0.00436944 0.007826721 -0.007522761 0.0069567296 -0.0042652832 0.0076468694 -0.00050879567 0.006059537 0.0032215028 -0.00042788908 0.0013517751 -0.0018633666 -0.0022872202 -0.006248629 0.0035437853 -0.00792526 -0.0032461418 -0.0033279243 -0.004188028 0.0027320876 0.003137709 -0.0012814649 0.006773242 -0.0032983378 -0.00032342013 -0.0016290355 -0.00086340023 0.004482427 0.00086972007 0.0010528018 0.005297075 -0.006970491 -0.0074015674 -0.00010944961 0.006382825 0.0017742886
 -0.0038216985 -0.002007901 0.004350339 -0.0044630347 0.000101712976 0.0059028543 -0.0025033543 -0.0047099222 -0.0001621279 -0.005824983 0.0029828036 -0.003240653 -0.00048437947 -0.00038168117 -0.0027876154 0.0019556738 0.0025165207 3.1670086e-05 0.0048503275 0.0025320784 0.0022491768 -0.0022015541 -0.0042760237 -0.0032566458 0.0056047407 -0.007003714 -0.001501985 0.00024896045 -0.00096399867 -0.0010527556 -0.0016114233 -0.0043490035 -0.003209351 -0.0010488235 -0.0014983976 0.0003352231 -0.002470902 -0.0022192516 0.002999894 -0.00083189877 0.0032930935 -0.0005092528 -0.0032068135 -0.006059974 0.002352063 -0.004604568 -0.00250869 0.0027416535 -0.0016293153 -0.003904721 0.0003249541 0.004138103 0.0013588005 -0.00027273505 -0.0009666063 0.004642662 -0.003607874 -0.00024598333 0.0029861634 -0.002751679 -0.0035802647 0.003382095 0.0036890619 0.0030216048 -0.003919014 0.0056179874 -0.003648923 0.0025424336 -0.00020990119 0.0017204065 0.0022829026 0.0010898666 -0.001785626 -0.00011051195 -0.0031787476 0.0028798582 -0.0053058257 -0.0028374828 -0.000177899 -0.0055959392 0.0010974712 0.0015183557 -0.0035041943 0.006414783 -0.0032516546 -0.00368902 -0.0028322188 -0.0014073055 -0.0013250437 -0.00033931588 -0.0039584497 0.0016546141 -0.0030398013 0.004348611 -0.0009856934 0.000256157 0.0014541352 0.0037285918 0.0050595584 -0.00063581945
school 0.004637081 -0.0011691746 0.002352595 -0.0030476332 -0.0036520604 0.0038542699 -0.0054761698 -0.0052971854 -0.0004301335 0.0008168078 0.0018812971 -0.003947372 -0.0039007675 -0.006780506 -0.0025584346 0.0014068513 0.0051033585 -0.0006018467 0.0007498314 0.001936412 -0.0036432985 0.0012315264 0.0020923596 -0.0021643785 -0.0009376351 -0.004492224 -0.0033515955 -0.0005359996 -0.003881425 -0.0013839487 0.0013629721 0.0050529707 -0.0010747408 -0.004487189 0.004297045 -0.008488573 -0.0026505673 0.006963567 0.005513943 0.005571172 0.0027485809 -0.0021119572 -0.006057685 -0.0007673323 -0.004347778 -0.0024392921 -0.0056828437 -0.0039430885 0.0050560934 -0.0016264182 0.0038920566 -0.0053739813 0.004237717 -0.0035499723 0.0037801806 0.0024953655 0.0019163522 -0.0016489985 0.001886588 -0.00015723231 0.0014116515 0.003121674 0.0011385903 -0.003301908 0.0051395684 0.003907408 -0.0038321465 0.005437042 0.00027791818 0.0065020085 0.002016051 -0.00054476765 -0.0032260097 -0.0020099184 0.00039176588 0.0009809071 -0.0056614014 -0.0062222607 -0.0033270072 -0.0007385607 0.00041438718 0.0004986648 0.000645724 0.00040598804 -0.0005695525 0.003299677 0.00192787 -0.00032730293 -0.0045248135 -0.0019471243 -0.0010658979 -0.0026728648 0.0046043466 -0.0040830933 0.0033790378 -0.0052393116 -0.0015889403 0.0024044374 -0.0016928938 -0.0017315556
